{"learner":{"attributes":{"scikit_learn":"{\"_estimator_type\": \"classifier\"}"},"feature_names":["age","hypertension","heart_disease","avg_glucose_level","bmi","gender_Male","gender_Other","ever_married_Yes","work_type_Never_worked","work_type_Private","work_type_Self-employed","work_type_children","Residence_type_Urban","smoking_status_never smoked","smoking_status_smokes"],"feature_types":["float","int","int","float","float","i","i","i","i","i","i","i","i","i","i"],"gradient_booster":{"model":{"gbtree_model_param":{"num_parallel_tree":"1","num_trees":"100"},"iteration_indptr":[0,1,2,3,4,5,6,7,8,9,10,11,12,13,14,15,16,17,18,19,20,21,22,23,24,25,26,27,28,29,30,31,32,33,34,35,36,37,38,39,40,41,42,43,44,45,46,47,48,49,50,51,52,53,54,55,56,57,58,59,60,61,62,63,64,65,66,67,68,69,70,71,72,73,74,75,76,77,78,79,80,81,82,83,84,85,86,87,88,89,90,91,92,93,94,95,96,97,98,99,100],"tree_info":[0,0,0,0,0,0,0,0,0,0,0,0,0,0,0,0,0,0,0,0,0,0,0,0,0,0,0,0,0,0,0,0,0,0,0,0,0,0,0,0,0,0,0,0,0,0,0,0,0,0,0,0,0,0,0,0,0,0,0,0,0,0,0,0,0,0,0,0,0,0,0,0,0,0,0,0,0,0,0,0,0,0,0,0,0,0,0,0,0,0,0,0,0,0,0,0,0,0,0,0],"trees":[{"base_weights":[-7.821884E-1,-9.9450207E-1,1.7813879E-1,-1.4898023E-1,-7.6406676E-1,-9.594183E-2,4.686992E-1,-1.1028674E-1,-4.6207495E-2,-2.551946E-1,2.3645217E-2,1.247445E-1,-1.0004429E-2,1.3631082E-2,-9.1538854E-2],"categories":[],"categories_nodes":[],"categories_segments":[],"categories_sizes":[],"default_left":[0,0,0,0,0,0,0,0,0,0,0,0,0,0,0],"id":0,"left_children":[1,3,5,-1,7,9,11,-1,-1,13,-1,-1,-1,-1,-1],"loss_changes":[7.709677E1,8.621582E0,5.6774354E0,0E0,3.0760956E0,1.573624E0,9.745651E0,0E0,0E0,4.217009E0,0E0,0E0,0E0,0E0,0E0],"parents":[2147483647,0,0,1,1,2,2,4,4,5,5,6,6,9,9],"right_children":[2,4,6,-1,8,10,12,-1,-1,14,-1,-1,-1,-1,-1],"split_conditions":[6.7E1,4.5E1,7.6E1,-1.4898023E-1,1.623E2,1.739E2,2.85E1,-1.1028674E-1,-4.6207495E-2,8.932E1,2.3645217E-2,1.247445E-1,-1.0004429E-2,1.3631082E-2,-9.1538854E-2],"split_indices":[0,0,0,0,3,3,4,0,0,3,0,0,0,0,0],"split_type":[0,0,0,0,0,0,0,0,0,0,0,0,0,0,0],"sum_hessian":[3.7435767E2,3.071746E2,6.7183075E1,1.8457155E2,1.2260304E2,3.347027E1,3.3712807E1,1.00532074E2,2.2070972E1,2.2919857E1,1.055041E1,1.8311632E1,1.5401174E1,1.2005639E1,1.0914218E1],"tree_param":{"num_deleted":"0","num_feature":"15","num_nodes":"15","size_leaf_vector":"1"}},{"base_weights":[-7.215384E-1,-1.0230652E0,-1.2203523E-1,-1.4256498E-1,-8.351401E-1,-4.287489E-1,2.5773817E-1,-1.175848E-1,-4.9156655E-2,-0E0,-1.08923845E-1,-8.892561E-3,5.458525E-1,5.148853E-2,-3.70924E-2,1.6963068E-2,1.501316E-1],"categories":[],"categories_nodes":[],"categories_segments":[],"categories_sizes":[],"default_left":[0,0,0,0,0,0,0,0,0,0,0,0,0,0,0,0,0],"id":1,"left_children":[1,3,5,-1,7,9,11,-1,-1,13,-1,-1,15,-1,-1,-1,-1],"loss_changes":[6.3024445E1,1.221878E0,1.4112766E1,0E0,9.6365356E-1,1.2154293E1,5.309386E0,0E0,0E0,3.7697444E0,0E0,0E0,6.349201E0,0E0,0E0,0E0,0E0],"parents":[2147483647,0,0,1,1,2,2,4,4,5,5,6,6,9,9,12,12],"right_children":[2,4,6,-1,8,10,12,-1,-1,14,-1,-1,16,-1,-1,-1,-1],"split_conditions":[5.7E1,4.5E1,1.0365E2,-1.4256498E-1,3.9E1,2.82E1,1E0,-1.175848E-1,-4.9156655E-2,7.914E1,-1.08923845E-1,-8.892561E-3,7.2E1,5.148853E-2,-3.70924E-2,1.6963068E-2,1.501316E-1],"split_indices":[0,0,3,0,4,4,9,0,0,3,0,0,0,0,0,0,0],"split_type":[0,0,0,0,0,0,0,0,0,0,0,0,0,0,0,0,0],"sum_hessian":[3.5303864E2,2.3387334E2,1.1916528E2,1.6651466E2,6.735867E1,6.693245E1,5.223283E1,5.7148907E1,1.0209765E1,3.2161934E1,3.4770515E1,2.3517574E1,2.8715258E1,1.4144702E1,1.8017233E1,1.8058577E1,1.0656681E1],"tree_param":{"num_deleted":"0","num_feature":"15","num_nodes":"17","size_leaf_vector":"1"}},{"base_weights":[-6.7270154E-1,-8.932031E-1,1.9181737E-1,-1.334148E-1,-5.0215465E-1,-7.827552E-2,4.4832274E-1,-9.939986E-2,-1.4167571E-1,3.7721515E-2,-4.73548E-2,4.702939E-2,1.3280332E-1,3.455607E-2,-7.340819E-2,-3.3103064E-2,5.4118592E-2],"categories":[],"categories_nodes":[],"categories_segments":[],"categories_sizes":[],"default_left":[0,0,0,0,0,0,0,0,0,0,0,0,0,0,0,0,0],"id":2,"left_children":[1,3,5,-1,7,9,11,-1,13,-1,-1,15,-1,-1,-1,-1,-1],"loss_changes":[6.338118E1,1.1923859E1,4.901801E0,0E0,5.6172276E0,3.3981774E0,7.35184E0,0E0,5.417393E0,0E0,0E0,2.6127656E0,0E0,0E0,0E0,0E0,0E0],"parents":[2147483647,0,0,1,1,2,2,4,4,5,5,6,6,8,8,11,11],"right_children":[2,4,6,-1,8,10,12,-1,14,-1,-1,16,-1,-1,-1,-1,-1],"split_conditions":[6.7E1,5.4E1,1E0,-1.334148E-1,1.0437E2,8.932E1,1.2604E2,-9.939986E-2,1E0,3.7721515E-2,-4.73548E-2,7.7E1,1.3280332E-1,3.455607E-2,-7.340819E-2,-3.3103064E-2,5.4118592E-2],"split_indices":[0,0,9,0,3,3,3,0,13,0,0,0,0,0,0,0,0],"split_type":[0,0,0,0,0,0,0,0,0,0,0,0,0,0,0,0,0],"sum_hessian":[3.2893387E2,2.6273404E2,6.619983E1,1.9565154E2,6.708249E1,3.1049541E1,3.5150288E1,3.7547054E1,2.9535433E1,1.2451491E1,1.8598051E1,2.1658602E1,1.3491687E1,1.4248101E1,1.5287332E1,1.0924833E1,1.07337675E1],"tree_param":{"num_deleted":"0","num_feature":"15","num_nodes":"17","size_leaf_vector":"1"}},{"base_weights":[-6.137916E-1,-8.425218E-1,2.0134449E-1,-1.3343197E-1,-5.194149E-1,-8.432965E-3,4.1944528E-1,-8.5813E-2,-3.9852707E-4,3.7204593E-2,-4.9545553E-2,1.5164487E-2,1.3439153E-1],"categories":[],"categories_nodes":[],"categories_segments":[],"categories_sizes":[],"default_left":[0,0,0,0,0,0,0,0,0,0,0,0,0],"id":3,"left_children":[1,3,5,-1,7,9,11,-1,-1,-1,-1,-1,-1],"loss_changes":[5.810685E1,1.2681091E1,3.377827E0,0E0,5.8559647E0,3.7284987E0,5.543376E0,0E0,0E0,0E0,0E0,0E0,0E0],"parents":[2147483647,0,0,1,1,2,2,4,4,5,5,6,6],"right_children":[2,4,6,-1,8,10,12,-1,-1,-1,-1,-1,-1],"split_conditions":[6.8E1,4.9E1,1E0,-1.3343197E-1,1.623E2,2.84E1,7.9E1,-8.5813E-2,-3.9852707E-4,3.7204593E-2,-4.9545553E-2,1.5164487E-2,1.3439153E-1],"split_indices":[0,0,9,0,3,4,0,0,0,0,0,0,0],"split_type":[0,0,0,0,0,0,0,0,0,0,0,0,0],"sum_hessian":[3.0826874E2,2.4139476E2,6.687397E1,1.530342E2,8.8360565E1,3.2650608E1,3.4223362E1,6.852953E1,1.9831034E1,1.7218458E1,1.5432151E1,2.4028368E1,1.0194992E1],"tree_param":{"num_deleted":"0","num_feature":"15","num_nodes":"13","size_leaf_vector":"1"}},{"base_weights":[-5.752103E-1,-9.2875415E-1,-3.6907863E-2,-1.3846888E-1,-9.683547E-2,-2.2082049E-1,4.2160773E-1,-3.7715524E-1,3.0663926E-2,8.951549E-2,-0E0,-3.2514494E-2,-6.0692555E-1,-8.475718E-2,1.0922825E-1,-1.00924015E-1,-1.3191018E-2],"categories":[],"categories_nodes":[],"categories_segments":[],"categories_sizes":[],"default_left":[0,0,0,0,0,0,0,0,0,0,0,0,0,0,0,0,0],"id":4,"left_children":[1,3,5,-1,-1,7,9,11,-1,-1,-1,13,15,-1,-1,-1,-1],"loss_changes":[5.380223E1,2.574707E0,9.586144E0,0E0,0E0,6.0868626E0,3.680441E0,4.557472E0,0E0,0E0,0E0,1.4680243E1,2.4306374E0,0E0,0E0,0E0,0E0],"parents":[2147483647,0,0,1,1,2,2,5,5,6,6,7,7,11,11,12,12],"right_children":[2,4,6,-1,-1,8,10,12,-1,-1,-1,14,16,-1,-1,-1,-1],"split_conditions":[5.7E1,3.8E1,7.8E1,-1.3846888E-1,-9.683547E-2,1.9498E2,2.85E1,2.83E1,3.0663926E-2,8.951549E-2,-0E0,2.69E1,1.0437E2,-8.475718E-2,1.0922825E-1,-1.00924015E-1,-1.3191018E-2],"split_indices":[0,0,0,0,0,3,4,4,0,0,0,4,3,0,0,0,0],"split_type":[0,0,0,0,0,0,0,0,0,0,0,0,0,0,0,0,0],"sum_hessian":[2.859405E2,1.7157391E2,1.14366554E2,9.698189E1,7.459203E1,8.291959E1,3.1446962E1,6.2972202E1,1.9947392E1,1.9412117E1,1.2034845E1,2.665698E1,3.631522E1,1.6146557E1,1.0510424E1,2.607563E1,1.023959E1],"tree_param":{"num_deleted":"0","num_feature":"15","num_nodes":"17","size_leaf_vector":"1"}},{"base_weights":[-5.367175E-1,-9.0608853E-1,-2.6364418E-2,-1.2833165E-1,-5.991998E-1,-3.5681814E-1,1.9190009E-1,-1.08678E-1,-2.909024E-2,2.3869637E-3,-8.157856E-2,-7.503419E-2,5.161443E-1,1.2232994E-1,-6.483585E-2,1.32401725E-2,1.0938088E-1,-4.3751127E-3,4.6734817E-2],"categories":[],"categories_nodes":[],"categories_segments":[],"categories_sizes":[],"default_left":[0,0,0,0,0,0,0,0,0,0,0,0,0,0,0,0,0,0,0],"id":5,"left_children":[1,3,5,-1,7,9,11,-1,-1,-1,-1,13,15,17,-1,-1,-1,-1,-1],"loss_changes":[5.0078033E1,2.2551727E0,8.399917E0,0E0,2.1649418E0,5.1637177E0,6.2100163E0,0E0,0E0,0E0,0E0,3.3302262E0,3.5465794E0,1.1217699E0,0E0,0E0,0E0,0E0,0E0],"parents":[2147483647,0,0,1,1,2,2,4,4,5,5,6,6,11,11,12,12,13,13],"right_children":[2,4,6,-1,8,10,12,-1,-1,-1,-1,14,16,18,-1,-1,-1,-1,-1],"split_conditions":[5.7E1,4.9E1,6.8E1,-1.2833165E-1,1.0201E2,2.86E1,1.0365E2,-1.08678E-1,-2.909024E-2,2.3869637E-3,-8.157856E-2,2.85E1,7.6E1,2.62E1,-6.483585E-2,1.32401725E-2,1.0938088E-1,-4.3751127E-3,4.6734817E-2],"split_indices":[0,0,0,0,3,4,3,0,0,0,0,4,0,4,0,0,0,0,0],"split_type":[0,0,0,0,0,0,0,0,0,0,0,0,0,0,0,0,0,0,0],"sum_hessian":[2.6877252E2,1.5489113E2,1.1388142E2,1.2109614E2,3.3794983E1,4.648183E1,6.739958E1,1.9324009E1,1.4470973E1,1.845055E1,2.803128E1,3.595912E1,3.1440462E1,2.3571089E1,1.2388033E1,1.498714E1,1.6453321E1,1.2609613E1,1.0961475E1],"tree_param":{"num_deleted":"0","num_feature":"15","num_nodes":"19","size_leaf_vector":"1"}},{"base_weights":[-5.193264E-1,-9.2978776E-1,-7.231407E-2,-1.3622811E-1,-9.64344E-2,-3.5229495E-1,1.5518214E-1,-0E0,-8.838996E-2,3.1240645E-1,-5.264396E-3,-4.877343E-2,7.11884E-2,-5.8118016E-3,8.3250515E-2,-5.032468E-2,7.659979E-2],"categories":[],"categories_nodes":[],"categories_segments":[],"categories_sizes":[],"default_left":[0,0,0,0,0,0,0,0,0,0,0,0,0,0,0,0,0],"id":6,"left_children":[1,3,5,-1,-1,7,9,11,-1,13,15,-1,-1,-1,-1,-1,-1],"loss_changes":[4.567855E1,1.2001419E0,7.9693975E0,0E0,0E0,6.900007E0,1.8983445E0,5.633527E0,0E0,4.601904E0,6.975089E0,0E0,0E0,0E0,0E0,0E0,0E0],"parents":[2147483647,0,0,1,1,2,2,5,5,6,6,7,7,9,9,10,10],"right_children":[2,4,6,-1,-1,8,10,12,-1,14,16,-1,-1,-1,-1,-1,-1],"split_conditions":[5.4E1,3.8E1,6.8E1,-1.3622811E-1,-9.64344E-2,1E0,2.83E1,1.1132E2,-8.838996E-2,2.56E1,1.8299E2,-4.877343E-2,7.11884E-2,-5.8118016E-3,8.3250515E-2,-5.032468E-2,7.659979E-2],"split_indices":[0,0,0,0,0,13,4,3,0,4,3,0,0,0,0,0,0],"split_type":[0,0,0,0,0,0,0,0,0,0,0,0,0,0,0,0,0],"sum_hessian":[2.5255983E2,1.3055542E2,1.220044E2,7.810726E1,5.2448166E1,5.5985474E1,6.601893E1,2.6135061E1,2.9850414E1,3.536738E1,3.0651552E1,1.4896138E1,1.1238922E1,1.6014763E1,1.9352615E1,1.9503569E1,1.1147983E1],"tree_param":{"num_deleted":"0","num_feature":"15","num_nodes":"17","size_leaf_vector":"1"}},{"base_weights":[-4.6332735E-1,-8.425253E-1,-3.3173393E-2,-1.2641156E-1,-7.3165886E-2,-1.5646185E-1,2.37644E-1,7.341104E-2,-4.3437082E-1,-0E0,5.1174354E-2,-1.794984E-1,8.081489E-2,-9.42116E-2,-2.0300429E-1,-7.697971E-2,4.0893245E-2,-0E0,-5.834155E-2],"categories":[],"categories_nodes":[],"categories_segments":[],"categories_sizes":[],"default_left":[0,0,0,0,0,0,0,0,0,0,0,0,0,0,0,0,0,0,0],"id":7,"left_children":[1,3,5,-1,-1,7,9,11,13,-1,-1,15,-1,-1,17,-1,-1,-1,-1],"loss_changes":[3.895441E1,3.1908493E0,3.8035126E0,0E0,0E0,5.4622264E0,1.3522116E0,6.3654194E0,1.8097868E0,0E0,0E0,6.1838093E0,0E0,0E0,1.2265544E0,0E0,0E0,0E0,0E0],"parents":[2147483647,0,0,1,1,2,2,5,5,6,6,7,7,8,8,11,11,14,14],"right_children":[2,4,6,-1,-1,8,10,12,14,-1,-1,16,-1,-1,18,-1,-1,-1,-1],"split_conditions":[5.7E1,4.5E1,1.739E2,-1.2641156E-1,-7.3165886E-2,2.82E1,1E0,2.72E1,3.1E1,-0E0,5.1174354E-2,7.8E1,8.081489E-2,-9.42116E-2,3.46E1,-7.697971E-2,4.0893245E-2,-0E0,-5.834155E-2],"split_indices":[0,0,3,0,0,4,9,4,4,0,0,0,0,0,4,0,0,0,0],"split_type":[0,0,0,0,0,0,0,0,0,0,0,0,0,0,0,0,0,0,0],"sum_hessian":[2.4226193E2,1.2762613E2,1.146358E2,8.5669464E1,4.1956665E1,8.073157E1,3.3904236E1,4.2968742E1,3.776283E1,1.2953562E1,2.0950672E1,2.8685917E1,1.4282825E1,1.5005637E1,2.275719E1,1.639526E1,1.2290656E1,1.2305725E1,1.0451467E1],"tree_param":{"num_deleted":"0","num_feature":"15","num_nodes":"19","size_leaf_vector":"1"}},{"base_weights":[-4.7851557E-1,-1.1877154E-1,-1.8913475E-1,-3.5517412E-1,1.9731888E-1,-5.018827E-1,-0E0,-9.54059E-3,6.1226413E-2,-5.826457E-1,-0E0,2.8321419E-2,-2.0320117E-2,-1.14084914E-1,-5.6329697E-2],"categories":[],"categories_nodes":[],"categories_segments":[],"categories_sizes":[],"default_left":[0,0,0,0,0,0,0,0,0,0,0,0,0,0,0],"id":8,"left_children":[1,-1,3,5,7,9,11,-1,-1,13,-1,-1,-1,-1,-1],"loss_changes":[2.7265713E1,0E0,8.905828E0,5.282398E0,3.2419128E0,2.6865234E0,9.8705125E-1,0E0,0E0,1.5022755E0,0E0,0E0,0E0,0E0,0E0],"parents":[2147483647,0,0,2,2,3,3,4,4,5,5,6,6,9,9],"right_children":[2,-1,4,6,8,10,12,-1,-1,14,-1,-1,-1,-1,-1],"split_conditions":[4.9E1,-1.1877154E-1,1.5893E2,7.6E1,1E0,1E0,1E0,-9.54059E-3,6.1226413E-2,2.71E1,-0E0,2.8321419E-2,-2.0320117E-2,-1.14084914E-1,-5.6329697E-2],"split_indices":[0,0,3,0,12,1,12,0,0,4,0,0,0,0,0],"split_type":[0,0,0,0,0,0,0,0,0,0,0,0,0,0,0],"sum_hessian":[2.2491182E2,8.8892494E1,1.3601932E2,9.646532E1,3.9554E1,6.904144E1,2.7423876E1,1.8681162E1,2.087284E1,5.901674E1,1.0024702E1,1.2610355E1,1.48135195E1,1.7748495E1,4.126824E1],"tree_param":{"num_deleted":"0","num_feature":"15","num_nodes":"15","size_leaf_vector":"1"}},{"base_weights":[-4.322891E-1,-8.8395363E-1,-1.3744141E-1,-1.3164237E-1,-8.086051E-2,-3.8358045E-1,7.387281E-2,-5.8614916E-1,-1.3756451E-1,-2.9521523E-2,5.2505866E-2,-3.0977594E-2,-1.0455648E-1,-4.0813226E-2,1.582368E-2,-3.396015E-1,2.8621587E-1,-8.400272E-3,-8.910151E-2,-1.255427E-3,7.389892E-2],"categories":[],"categories_nodes":[],"categories_segments":[],"categories_sizes":[],"default_left":[0,0,0,0,0,0,0,0,0,0,0,0,0,0,0,0,0,0,0,0,0],"id":9,"left_children":[1,3,5,-1,-1,7,9,11,13,15,-1,-1,-1,-1,-1,17,19,-1,-1,-1,-1],"loss_changes":[2.7938274E1,1.3041153E0,7.1038647E0,0E0,0E0,2.5645733E0,2.6455564E0,1.6084604E0,1.538178E0,5.1709905E0,0E0,0E0,0E0,0E0,0E0,2.046972E0,2.4594324E0,0E0,0E0,0E0,0E0],"parents":[2147483647,0,0,1,1,2,2,5,5,6,6,7,7,8,8,9,9,15,15,16,16],"right_children":[2,4,6,-1,-1,8,10,12,14,16,-1,-1,-1,-1,-1,18,20,-1,-1,-1,-1],"split_conditions":[5.1E1,3.8E1,6.8E1,-1.3164237E-1,-8.086051E-2,1.0335E2,1E0,7.914E1,3.45E1,1.0258E2,5.2505866E-2,-3.0977594E-2,-1.0455648E-1,-4.0813226E-2,1.582368E-2,8.295E1,1E0,-8.400272E-3,-8.910151E-2,-1.255427E-3,7.389892E-2],"split_indices":[0,0,0,0,0,3,1,3,4,3,0,0,0,0,0,3,9,0,0,0,0],"split_type":[0,0,0,0,0,0,0,0,0,0,0,0,0,0,0,0,0,0,0,0,0],"sum_hessian":[2.1524072E2,8.3672195E1,1.3156853E2,5.4123085E1,2.9549109E1,6.2159706E1,6.940882E1,3.2127098E1,3.0032606E1,5.1463207E1,1.7945614E1,1.3903007E1,1.822409E1,1.9503227E1,1.052938E1,2.7090103E1,2.4373104E1,1.6505968E1,1.0584135E1,1.0832544E1,1.3540559E1],"tree_param":{"num_deleted":"0","num_feature":"15","num_nodes":"21","size_leaf_vector":"1"}},{"base_weights":[-3.9700466E-1,-8.2908505E-1,-7.609745E-2,-1.2632464E-1,-7.216249E-2,1.2837426E-1,-2.4341533E-1,2.9149675E-1,-2.4490694E-2,-4.9867567E-1,-0E0,-1.8882966E-3,7.047766E-2,-8.1759974E-2,-1.676987E-2,4.978862E-2,-1.5814073E-1,-7.046892E-2,1.6476661E-2],"categories":[],"categories_nodes":[],"categories_segments":[],"categories_sizes":[],"default_left":[0,0,0,0,0,0,0,0,0,0,0,0,0,0,0,0,0,0,0],"id":10,"left_children":[1,3,5,-1,-1,7,9,11,-1,13,15,-1,-1,-1,-1,-1,17,-1,-1],"loss_changes":[2.7885769E1,1.9773369E0,4.192458E0,0E0,0E0,2.7944357E0,4.5178328E0,3.1276357E0,0E0,1.0441008E0,2.2164702E0,0E0,0E0,0E0,0E0,0E0,2.859158E0,0E0,0E0],"parents":[2147483647,0,0,1,1,2,2,5,5,6,6,7,7,9,9,10,10,16,16],"right_children":[2,4,6,-1,-1,8,10,12,-1,14,16,-1,-1,-1,-1,-1,18,-1,-1],"split_conditions":[5.4E1,4.2E1,1E0,-1.2632464E-1,-7.216249E-2,1E0,7.2E1,9.684E1,-2.4490694E-2,1.7833E2,8.196E1,-1.8882966E-3,7.047766E-2,-8.1759974E-2,-1.676987E-2,4.978862E-2,1.2046E2,-7.046892E-2,1.6476661E-2],"split_indices":[0,0,13,0,0,10,0,3,0,3,3,0,0,0,0,0,3,0,0],"split_type":[0,0,0,0,0,0,0,0,0,0,0,0,0,0,0,0,0,0,0],"sum_hessian":[2.055239E2,8.63126E1,1.19211296E2,5.4936928E1,3.1375671E1,5.1773563E1,6.743774E1,3.5665817E1,1.6107748E1,3.386724E1,3.357049E1,1.4894048E1,2.0771769E1,2.3495625E1,1.0371617E1,1.07452545E1,2.2825237E1,1.0634494E1,1.2190743E1],"tree_param":{"num_deleted":"0","num_feature":"15","num_nodes":"19","size_leaf_vector":"1"}},{"base_weights":[-3.252808E-1,-7.743823E-1,-1.6725305E-2,-1.1937869E-1,-6.4144485E-2,-1.8365397E-1,1.4432654E-1,2.8996395E-2,-6.2443707E-2,-1.2154368E-1,3.4116262E-1,-2.0691617E-1,7.608848E-2,7.2045308E-3,-5.2409735E-2,5.5749295E-3,8.170457E-2,-6.88813E-2,1.35074025E-2],"categories":[],"categories_nodes":[],"categories_segments":[],"categories_sizes":[],"default_left":[0,0,0,0,0,0,0,0,0,0,0,0,0,0,0,0,0,0,0],"id":11,"left_children":[1,3,5,-1,-1,7,9,11,-1,13,15,17,-1,-1,-1,-1,-1,-1,-1],"loss_changes":[2.6373283E1,1.8788147E0,3.178419E0,0E0,0E0,4.07008E0,3.1856165E0,4.7342625E0,0E0,1.4097005E0,2.457718E0,2.630167E0,0E0,0E0,0E0,0E0,0E0,0E0,0E0],"parents":[2147483647,0,0,1,1,2,2,5,5,6,6,7,7,9,9,10,10,11,11],"right_children":[2,4,6,-1,-1,8,10,12,-1,14,16,18,-1,-1,-1,-1,-1,-1,-1],"split_conditions":[5.4E1,4.2E1,1.0437E2,-1.1937869E-1,-6.4144485E-2,2.82E1,1E0,2.71E1,-6.2443707E-2,1.9633E2,1E0,7.8E1,7.608848E-2,7.2045308E-3,-5.2409735E-2,5.5749295E-3,8.170457E-2,-6.88813E-2,1.35074025E-2],"split_indices":[0,0,3,0,0,4,9,4,0,3,5,0,0,0,0,0,0,0,0],"split_type":[0,0,0,0,0,0,0,0,0,0,0,0,0,0,0,0,0,0,0],"sum_hessian":[1.9397104E2,7.775222E1,1.1621882E2,4.9585163E1,2.816706E1,5.921835E1,5.700047E1,3.3239975E1,2.5978373E1,2.2779053E1,3.4221416E1,2.2617048E1,1.0622927E1,1.2633563E1,1.014549E1,1.820822E1,1.6013199E1,1.2090843E1,1.0526205E1],"tree_param":{"num_deleted":"0","num_feature":"15","num_nodes":"19","size_leaf_vector":"1"}},{"base_weights":[-4.0998828E-1,-7.7839124E-1,-1.2339774E-1,-1.2442109E-1,-7.717802E-2,2.2941658E-2,-3.010415E-1,-2.9563125E-2,1.17507525E-1,-8.610039E-2,-1.638814E-1,2.1210471E-2,-4.7979433E-2],"categories":[],"categories_nodes":[],"categories_segments":[],"categories_sizes":[],"default_left":[0,0,0,0,0,0,0,0,0,0,0,0,0],"id":12,"left_children":[1,3,5,-1,-1,7,9,-1,-1,-1,11,-1,-1],"loss_changes":[1.9510536E1,1.3212852E0,3.0436954E0,0E0,0E0,1.3307803E1,1.8962135E0,0E0,0E0,0E0,2.7960505E0,0E0,0E0],"parents":[2147483647,0,0,1,1,2,2,5,5,6,6,10,10],"right_children":[2,4,6,-1,-1,8,10,-1,-1,-1,12,-1,-1],"split_conditions":[5.7E1,3.8E1,2.87E1,-1.2442109E-1,-7.717802E-2,2.81E1,3.05E1,-2.9563125E-2,1.17507525E-1,-8.610039E-2,3.3E1,2.1210471E-2,-4.7979433E-2],"split_indices":[0,0,4,0,0,4,4,0,0,0,4,0,0],"split_type":[0,0,0,0,0,0,0,0,0,0,0,0,0],"sum_hessian":[1.908655E2,8.205635E1,1.0880914E2,3.94293E1,4.2627052E1,5.768175E1,5.1127396E1,4.4556038E1,1.3125714E1,1.2192409E1,3.8934986E1,1.3647797E1,2.5287191E1],"tree_param":{"num_deleted":"0","num_feature":"15","num_nodes":"13","size_leaf_vector":"1"}},{"base_weights":[-2.6358253E-1,-1.1237557E-1,-4.889484E-3,-2.175849E-1,1.7102465E-1,5.469432E-3,-3.6722514E-1,-0E0,2.6035145E-1,-6.257104E-2,7.99262E-2,-1.5352668E-1,-7.846152E-2,2.4114981E-2,-3.0729532E-2,6.8611816E-2,2.9947698E-2,-4.8561625E-2,-0E0,-3.1037273E-2,3.1446807E-2],"categories":[],"categories_nodes":[],"categories_segments":[],"categories_sizes":[],"default_left":[0,0,0,0,0,0,0,0,0,0,0,0,0,0,0,0,0,0,0,0,0],"id":13,"left_children":[1,-1,3,5,7,9,11,13,15,-1,-1,17,-1,-1,-1,-1,19,-1,-1,-1,-1],"loss_changes":[2.7088428E1,0E0,4.7829914E0,2.2393837E0,1.1981797E0,6.8167453E0,1.2849975E0,9.7771287E-1,2.458907E0,0E0,0E0,9.468053E-1,0E0,0E0,0E0,0E0,1.5570002E0,0E0,0E0,0E0,0E0],"parents":[2147483647,0,0,2,2,3,3,4,4,5,5,6,6,7,7,8,8,11,11,16,16],"right_children":[2,-1,4,6,8,10,12,14,16,-1,-1,18,-1,-1,-1,-1,20,-1,-1,-1,-1],"split_conditions":[4.9E1,-1.1237557E-1,6.8E1,2.86E1,2.65E1,2.73E1,6E1,9.461E1,2.85E1,-6.257104E-2,7.99262E-2,1.0201E2,-7.846152E-2,2.4114981E-2,-3.0729532E-2,6.8611816E-2,1.0486E2,-4.8561625E-2,-0E0,-3.1037273E-2,3.1446807E-2],"split_indices":[0,0,0,4,4,4,0,3,4,0,0,3,0,0,0,0,3,0,0,0,0],"split_type":[0,0,0,0,0,0,0,0,0,0,0,0,0,0,0,0,0,0,0,0,0],"sum_hessian":[1.7885167E2,5.287466E1,1.2597701E2,5.8817722E1,6.7159294E1,2.188134E1,3.6936382E1,2.077703E1,4.6382263E1,1.1563971E1,1.0317369E1,2.1318335E1,1.5618047E1,1.0193189E1,1.0583843E1,1.982722E1,2.6555044E1,1.00707445E1,1.124759E1,1.0180023E1,1.637502E1],"tree_param":{"num_deleted":"0","num_feature":"15","num_nodes":"21","size_leaf_vector":"1"}},{"base_weights":[-2.6991862E-1,-1.1080706E-1,-8.717478E-2,-4.5980778E-2,-7.1586734E-3,1.514656E-1,-1.8261E-1,-5.1475253E-2,1.0049686E-1,-6.846036E-2,-2.3831824E-2,1.3479351E-2,-4.7010936E-2,4.2398833E-2,-3.3615563E-2],"categories":[],"categories_nodes":[],"categories_segments":[],"categories_sizes":[],"default_left":[0,0,0,0,0,0,0,0,0,0,0,0,0,0,0],"id":14,"left_children":[1,-1,3,-1,5,7,9,11,-1,-1,13,-1,-1,-1,-1],"loss_changes":[1.7466618E1,0E0,2.541881E0,0E0,2.9297633E0,7.1518545E0,2.4095678E0,2.0782993E0,0E0,0E0,3.0284324E0,0E0,0E0,0E0,0E0],"parents":[2147483647,0,0,2,2,4,4,5,5,6,6,7,7,10,10],"right_children":[2,-1,4,-1,6,8,10,12,-1,-1,14,-1,-1,-1,-1],"split_conditions":[4.5E1,-1.1080706E-1,5.7E1,-4.5980778E-2,2.82E1,2.8E1,3.05E1,1E0,1.0049686E-1,-6.846036E-2,3.31E1,1.3479351E-2,-4.7010936E-2,4.2398833E-2,-3.3615563E-2],"split_indices":[0,0,0,0,4,4,4,10,0,0,4,0,0,0,0],"split_type":[0,0,0,0,0,0,0,0,0,0,0,0,0,0,0],"sum_hessian":[1.712822E2,3.9730698E1,1.315515E2,2.804633E1,1.0350517E2,5.2250393E1,5.1254784E1,3.880219E1,1.3448202E1,1.4472294E1,3.678249E1,2.4514404E1,1.4287786E1,1.3455446E1,2.3327042E1],"tree_param":{"num_deleted":"0","num_feature":"15","num_nodes":"15","size_leaf_vector":"1"}},{"base_weights":[-2.5896505E-1,-1.1457994E-1,-1.2603505E-1,-2.3896633E-1,1.3827483E-1,-7.1799785E-2,-1.5671232E-1,-7.300169E-4,3.750123E-2,-3.629737E-1,3.502144E-2,-1.2171731E-3,-8.0731034E-2,-1.8275557E-2,3.966658E-2],"categories":[],"categories_nodes":[],"categories_segments":[],"categories_sizes":[],"default_left":[0,0,0,0,0,0,0,0,0,0,0,0,0,0,0],"id":15,"left_children":[1,-1,3,5,7,-1,9,-1,-1,11,13,-1,-1,-1,-1],"loss_changes":[1.3120334E1,0E0,4.2831416E0,2.0248885E0,1.0703516E0,0E0,3.484515E0,0E0,0E0,3.2840257E0,2.074141E0,0E0,0E0,0E0,0E0],"parents":[2147483647,0,0,2,2,3,3,4,4,6,6,9,9,10,10],"right_children":[2,-1,4,6,8,-1,10,-1,-1,12,14,-1,-1,-1,-1],"split_conditions":[3.8E1,-1.1457994E-1,7.6E1,2.63E1,1E0,-7.1799785E-2,1E0,-7.300169E-4,3.750123E-2,1E0,6.3E1,-1.2171731E-3,-8.0731034E-2,-1.8275557E-2,3.966658E-2],"split_indices":[0,0,0,4,9,0,12,0,0,13,0,0,0,0,0],"split_type":[0,0,0,0,0,0,0,0,0,0,0,0,0,0,0],"sum_hessian":[1.6840808E2,2.834808E1,1.4006E2,1.0006232E2,3.9997673E1,1.8529634E1,8.1532684E1,1.814184E1,2.1855833E1,4.0869656E1,4.066303E1,1.8527643E1,2.2342014E1,2.3156227E1,1.7506802E1],"tree_param":{"num_deleted":"0","num_feature":"15","num_nodes":"15","size_leaf_vector":"1"}},{"base_weights":[-2.5098765E-1,-1.0685928E-1,-6.0603634E-2,2.2772583E-1,-1.4325283E-1,-2.4692902E-2,7.820135E-2,-5.1291233E-1,-2.9853769E-2,-2.1908993E-2,-1.0305581E-1,2.115681E-1,-2.5379217E-1,6.816852E-2,-3.412053E-2,-0E0,-7.74505E-2],"categories":[],"categories_nodes":[],"categories_segments":[],"categories_sizes":[],"default_left":[0,0,0,0,0,0,0,0,0,0,0,0,0,0,0,0,0],"id":16,"left_children":[1,-1,3,5,7,-1,-1,9,11,-1,-1,13,15,-1,-1,-1,-1],"loss_changes":[1.6879053E1,0E0,2.885331E0,4.3192453E0,3.7031596E0,0E0,0E0,1.2969546E0,4.20986E0,0E0,0E0,5.497512E0,3.3823016E0,0E0,0E0,0E0,0E0],"parents":[2147483647,0,0,2,2,3,3,4,4,7,7,8,8,11,11,12,12],"right_children":[2,-1,4,6,8,-1,-1,10,12,-1,-1,14,16,-1,-1,-1,-1],"split_conditions":[4.9E1,-1.0685928E-1,7.682E1,6.67E1,2.64E1,-2.4692902E-2,7.820135E-2,2.42E1,1E0,-2.1908993E-2,-1.0305581E-1,1.9779E2,3.15E1,6.816852E-2,-3.412053E-2,-0E0,-7.74505E-2],"split_indices":[0,0,3,3,4,0,0,4,13,0,0,3,4,0,0,0,0],"split_type":[0,0,0,0,0,0,0,0,0,0,0,0,0,0,0,0,0],"sum_hessian":[1.6175233E2,3.9280178E1,1.2247216E2,2.5165762E1,9.73064E1,1.1059219E1,1.4106543E1,2.0960592E1,7.634581E1,1.0823094E1,1.0137497E1,3.5212727E1,4.113308E1,2.2136486E1,1.307624E1,2.4394566E1,1.6738516E1],"tree_param":{"num_deleted":"0","num_feature":"15","num_nodes":"17","size_leaf_vector":"1"}},{"base_weights":[-1.733161E-1,-2.7003083E-1,2.1152297E-1,-6.175126E-1,-1.3922422E-1,9.912117E-2,-4.9866536E-3,-3.7914462E-2,-1.0303275E-1,-3.9722645E-1,7.0565715E-2,-1.5755852E-1,-8.4989026E-2,5.7566278E-2,-1.2169799E-1,-6.363252E-2,1.283076E-2,-3.6003355E-2,1.7644547E-2],"categories":[],"categories_nodes":[],"categories_segments":[],"categories_sizes":[],"default_left":[0,0,0,0,0,0,0,0,0,0,0,0,0,0,0,0,0,0,0],"id":17,"left_children":[1,3,5,7,9,-1,-1,-1,-1,11,13,15,-1,-1,17,-1,-1,-1,-1],"loss_changes":[6.0737762E0,5.3535795E0,4.7964773E0,1.0311041E0,5.498725E0,0E0,0E0,0E0,0E0,2.116068E0,3.9857864E0,2.436928E0,0E0,0E0,1.4486635E0,0E0,0E0,0E0,0E0],"parents":[2147483647,0,0,1,1,2,2,3,3,4,4,9,9,10,10,11,11,14,14],"right_children":[2,4,6,8,10,-1,-1,-1,-1,12,14,16,-1,-1,18,-1,-1,-1,-1],"split_conditions":[1E0,2.56E1,9.32E1,8.343E1,9.647E1,9.912117E-2,-4.9866536E-3,-3.7914462E-2,-1.0303275E-1,3.01E1,2.87E1,2.8E1,-8.4989026E-2,5.7566278E-2,2.0523E2,-6.363252E-2,1.283076E-2,-3.6003355E-2,1.7644547E-2],"split_indices":[1,4,3,3,3,0,0,0,0,4,4,4,0,0,3,0,0,0,0],"split_type":[0,0,0,0,0,0,0,0,0,0,0,0,0,0,0,0,0,0,0],"sum_hessian":[1.608366E2,1.3013673E2,3.069986E1,3.360177E1,9.653496E1,1.0201645E1,2.0498215E1,1.3455423E1,2.0146347E1,4.4630054E1,5.1904907E1,2.4810585E1,1.981947E1,1.879387E1,3.3111034E1,1.1868187E1,1.2942397E1,2.2414879E1,1.06961565E1],"tree_param":{"num_deleted":"0","num_feature":"15","num_nodes":"19","size_leaf_vector":"1"}},{"base_weights":[-1.4897753E-1,-1.0807356E-1,-3.1563565E-2,-1.434318E-1,1.626882E-1,-2.9979324E-1,2.0893511E-1,-8.38521E-3,5.069402E-2,-0E0,-5.673857E-1,-5.2364026E-3,8.345369E-2,2.3590937E-2,-5.2947223E-2,-4.317957E-2,-1.1569628E-1],"categories":[],"categories_nodes":[],"categories_segments":[],"categories_sizes":[],"default_left":[0,0,0,0,0,0,0,0,0,0,0,0,0,0,0,0,0],"id":18,"left_children":[1,-1,3,5,7,9,11,-1,-1,13,15,-1,-1,-1,-1,-1,-1],"loss_changes":[1.1831974E1,0E0,2.923711E0,4.94636E0,2.655984E0,4.672949E0,3.221808E0,0E0,0E0,2.452077E0,1.4005861E0,0E0,0E0,0E0,0E0,0E0,0E0],"parents":[2147483647,0,0,2,2,3,3,4,4,5,5,6,6,9,9,10,10],"right_children":[2,-1,4,6,8,10,12,-1,-1,14,16,-1,-1,-1,-1,-1,-1],"split_conditions":[3.8E1,-1.0807356E-1,7.4E1,1.623E2,1E0,1E0,3.44E1,-8.38521E-3,5.069402E-2,3.21E1,9.461E1,-5.2364026E-3,8.345369E-2,2.3590937E-2,-5.2947223E-2,-4.317957E-2,-1.1569628E-1],"split_indices":[0,0,0,3,9,13,4,0,0,4,3,0,0,0,0,0,0],"split_type":[0,0,0,0,0,0,0,0,0,0,0,0,0,0,0,0,0],"sum_hessian":[1.5581856E2,2.1642954E1,1.341756E2,8.7562225E1,4.6613377E1,6.2106976E1,2.5455248E1,2.1832039E1,2.478134E1,3.0600716E1,3.150626E1,1.5348168E1,1.01070795E1,2.0307585E1,1.0293131E1,1.9942524E1,1.1563736E1],"tree_param":{"num_deleted":"0","num_feature":"15","num_nodes":"17","size_leaf_vector":"1"}},{"base_weights":[-1.3637514E-1,-9.563655E-2,1.6787376E-2,1.9096015E-1,-1.3565443E-1,-6.214374E-2,4.3118975E-1,-3.9475864E-1,3.9174635E-2,-4.895338E-2,3.6168054E-2,1.0522987E-2,8.22635E-2,-2.7874883E-3,-7.532618E-2,-4.2593244E-2,2.1993147E-1,6.204703E-2,-0E0],"categories":[],"categories_nodes":[],"categories_segments":[],"categories_sizes":[],"default_left":[0,0,0,0,0,0,0,0,0,0,0,0,0,0,0,0,0,0,0],"id":19,"left_children":[1,-1,3,5,7,9,11,13,15,-1,-1,-1,-1,-1,-1,-1,17,-1,-1],"loss_changes":[1.4381472E1,0E0,3.245939E0,3.8364105E0,3.0813472E0,3.0364177E0,1.6672196E0,1.3876605E0,2.3334937E0,0E0,0E0,0E0,0E0,0E0,0E0,0E0,1.5990305E0,0E0,0E0],"parents":[2147483647,0,0,2,2,3,3,4,4,5,5,6,6,7,7,8,8,16,16],"right_children":[2,-1,4,6,8,10,12,14,16,-1,-1,-1,-1,-1,-1,-1,18,-1,-1],"split_conditions":[4.9E1,-9.563655E-2,2.82E1,2.64E1,1.0486E2,7.8E1,8.696E1,7.657E1,3.09E1,-4.895338E-2,3.6168054E-2,1.0522987E-2,8.22635E-2,-2.7874883E-3,-7.532618E-2,-4.2593244E-2,1E0,6.204703E-2,-0E0],"split_indices":[0,0,4,4,3,0,3,3,4,0,0,0,0,0,0,0,13,0,0],"split_type":[0,0,0,0,0,0,0,0,0,0,0,0,0,0,0,0,0,0,0],"sum_hessian":[1.5131032E2,3.1505047E1,1.19805275E2,5.805266E1,6.175261E1,2.6991722E1,3.1060942E1,2.6285078E1,3.546753E1,1.5112698E1,1.1879024E1,1.2796549E1,1.8264393E1,1.0088691E1,1.6196388E1,1.0296982E1,2.517055E1,1.2086048E1,1.30845E1],"tree_param":{"num_deleted":"0","num_feature":"15","num_nodes":"19","size_leaf_vector":"1"}},{"base_weights":[-2.0582137E-1,-1.0174789E-1,-1.2320382E-1,-1.7802303E-1,2.2490088E-2,-6.539952E-3,-5.5467144E-2,-2.0250481E-1,2.0982175E-1,-4.604012E-2,5.1951907E-3,4.906174E-2,-1.1931955E-3],"categories":[],"categories_nodes":[],"categories_segments":[],"categories_sizes":[],"default_left":[0,0,0,0,0,0,0,0,0,0,0,0,0],"id":20,"left_children":[1,-1,3,5,-1,7,-1,9,11,-1,-1,-1,-1],"loss_changes":[6.482262E0,0E0,2.1895957E0,4.571948E0,0E0,2.993963E0,0E0,1.6446439E0,1.4235866E0,0E0,0E0,0E0,0E0],"parents":[2147483647,0,0,2,2,3,3,5,5,7,7,8,8],"right_children":[2,-1,4,6,-1,8,-1,10,12,-1,-1,-1,-1],"split_conditions":[3.8E1,-1.0174789E-1,3.63E1,2.87E1,2.2490088E-2,7.4E1,-5.5467144E-2,2.81E1,1E0,-4.604012E-2,5.1951907E-3,4.906174E-2,-1.1931955E-3],"split_indices":[0,0,4,4,0,0,0,4,10,0,0,0,0],"split_type":[0,0,0,0,0,0,0,0,0,0,0,0,0],"sum_hessian":[1.5091183E2,1.7393858E1,1.3351797E2,1.1483069E2,1.868728E1,6.9769264E1,4.506142E1,3.8363354E1,3.1405912E1,2.5371464E1,1.299189E1,1.9525112E1,1.1880801E1],"tree_param":{"num_deleted":"0","num_feature":"15","num_nodes":"13","size_leaf_vector":"1"}},{"base_weights":[-1.6370562E-1,-9.9754944E-2,-8.183935E-2,-1.7844203E-1,3.17267E-2,-6.872743E-2,-8.08171E-2,5.0778043E-2,-4.8396997E-2,-4.7375258E-2,1.6269002E-3,-5.160591E-2,1.5060212E-1,4.6047647E-2,-0E0],"categories":[],"categories_nodes":[],"categories_segments":[],"categories_sizes":[],"default_left":[0,0,0,0,0,0,0,0,0,0,0,0,0,0,0],"id":21,"left_children":[1,-1,3,5,7,9,-1,-1,11,-1,-1,-1,13,-1,-1],"loss_changes":[6.726881E0,0E0,1.5712724E0,3.1401997E0,1.9224288E0,1.7423749E0,0E0,0E0,3.409497E0,0E0,0E0,0E0,1.0022113E0,0E0,0E0],"parents":[2147483647,0,0,2,2,3,3,4,4,5,5,8,8,12,12],"right_children":[2,-1,4,6,8,10,-1,-1,12,-1,-1,-1,14,-1,-1],"split_conditions":[3.9E1,-9.9754944E-2,2.95E1,1.9988E2,3.12E1,7.265E1,-8.08171E-2,5.0778043E-2,1.0486E2,-4.7375258E-2,1.6269002E-3,-5.160591E-2,1.9779E2,4.6047647E-2,-0E0],"split_indices":[0,0,4,3,4,3,0,0,3,0,0,0,3,0,0],"split_type":[0,0,0,0,0,0,0,0,0,0,0,0,0,0,0],"sum_hessian":[1.4929182E2,1.6378399E1,1.3291342E2,7.507884E1,5.7834576E1,6.186131E1,1.3217538E1,1.1890226E1,4.5944347E1,1.4924305E1,4.6937004E1,1.7884823E1,2.8059525E1,1.2772703E1,1.528682E1],"tree_param":{"num_deleted":"0","num_feature":"15","num_nodes":"15","size_leaf_vector":"1"}},{"base_weights":[-1.4450277E-1,-9.393929E-2,-4.2182714E-2,-1.2749852E-1,1.3941085E-1,-2.2429366E-1,4.4661406E-2,-7.0478213E-3,4.1949842E-2,-7.917118E-2,-7.7613026E-2,-1.8556794E-2,4.4406578E-2,-5.5367835E-2,7.7986396E-3],"categories":[],"categories_nodes":[],"categories_segments":[],"categories_sizes":[],"default_left":[0,0,0,0,0,0,0,0,0,0,0,0,0,0,0],"id":22,"left_children":[1,-1,3,5,7,9,11,-1,-1,13,-1,-1,-1,-1,-1],"loss_changes":[8.061034E0,0E0,1.9512706E0,1.6102964E0,1.5302535E0,2.6904643E0,1.8013544E0,0E0,0E0,2.4141068E0,0E0,0E0,0E0,0E0,0E0],"parents":[2147483647,0,0,2,2,3,3,4,4,5,5,6,6,9,9],"right_children":[2,-1,4,6,8,10,12,-1,-1,14,-1,-1,-1,-1,-1],"split_conditions":[4.5E1,-9.393929E-2,7.7E1,1.7833E2,1E0,3.25E1,3.36E1,-7.0478213E-3,4.1949842E-2,2.69E1,-7.7613026E-2,-1.8556794E-2,4.4406578E-2,-5.5367835E-2,7.7986396E-3],"split_indices":[0,0,0,3,9,4,4,0,0,4,0,0,0,0,0],"split_type":[0,0,0,0,0,0,0,0,0,0,0,0,0,0,0],"sum_hessian":[1.4601517E2,2.0555624E1,1.2545953E2,8.813826E1,3.7321278E1,5.898684E1,2.915142E1,1.6348604E1,2.0972672E1,4.418894E1,1.4797901E1,1.6529654E1,1.2621766E1,1.3880312E1,3.0308626E1],"tree_param":{"num_deleted":"0","num_feature":"15","num_nodes":"15","size_leaf_vector":"1"}},{"base_weights":[-5.3960953E-2,-3.9462087E-1,8.108198E-2,-1.2118338E-1,-1.2316481E-1,2.2902489E-2,4.2641386E-2,2.755749E-2,-8.273456E-2,4.8977826E-2,-1.7266197E-2,-1.3246423E-2,2.7610276E-2],"categories":[],"categories_nodes":[],"categories_segments":[],"categories_sizes":[],"default_left":[0,0,0,0,0,0,0,0,0,0,0,0,0],"id":23,"left_children":[1,3,5,-1,7,9,-1,-1,-1,-1,11,-1,-1],"loss_changes":[6.855533E0,5.3364897E0,1.2016548E0,0E0,5.413156E0,1.4657776E0,0E0,0E0,0E0,0E0,1.3795204E0,0E0,0E0],"parents":[2147483647,0,0,1,1,2,2,4,4,5,5,10,10],"right_children":[2,4,6,-1,8,10,-1,-1,-1,-1,12,-1,-1],"split_conditions":[5.7E1,2.64E1,8E1,-1.2118338E-1,1E0,6E1,4.2641386E-2,2.755749E-2,-8.273456E-2,4.8977826E-2,1E0,-1.3246423E-2,2.7610276E-2],"split_indices":[0,4,0,0,5,0,0,0,0,0,1,0,0],"split_type":[0,0,0,0,0,0,0,0,0,0,0,0,0],"sum_hessian":[1.4332085E2,4.192769E1,1.01393166E2,1.2851357E1,2.9076332E1,8.475826E1,1.6634903E1,1.6896671E1,1.2179661E1,1.0086776E1,7.4671486E1,5.7065594E1,1.7605892E1],"tree_param":{"num_deleted":"0","num_feature":"15","num_nodes":"13","size_leaf_vector":"1"}},{"base_weights":[-8.023952E-2,-1.0936328E-1,-2.0021162E-4,-3.4090642E-2,4.0338386E-2,9.280986E-2,-2.2761365E-2,-5.4193668E-2,3.0797018E-2,1.506199E-2,-1.67132E-2],"categories":[],"categories_nodes":[],"categories_segments":[],"categories_sizes":[],"default_left":[0,0,0,0,0,0,0,0,0,0,0],"id":24,"left_children":[1,-1,3,-1,5,-1,7,-1,9,-1,-1],"loss_changes":[8.055103E0,0E0,1.543176E0,0E0,5.1957746E0,0E0,2.4019747E0,0E0,1.1753807E0,0E0,0E0],"parents":[2147483647,0,0,2,2,4,4,6,6,8,8],"right_children":[2,-1,4,-1,6,-1,8,-1,10,-1,-1],"split_conditions":[3.8E1,-1.0936328E-1,7.21E1,-3.4090642E-2,7.892E1,9.280986E-2,8.611E1,-5.4193668E-2,3.31E1,1.506199E-2,-1.67132E-2],"split_indices":[0,0,3,0,3,0,3,0,4,0,0],"split_type":[0,0,0,0,0,0,0,0,0,0,0],"sum_hessian":[1.4226044E2,1.2301681E1,1.2995876E2,1.9495337E1,1.1046342E2,1.004849E1,1.00414925E2,1.3273289E1,8.714164E1,5.9888073E1,2.7253567E1],"tree_param":{"num_deleted":"0","num_feature":"15","num_nodes":"11","size_leaf_vector":"1"}},{"base_weights":[-8.47091E-2,-9.800121E-2,-1.3745908E-2,4.758252E-2,-2.9194668E-2,2.5567842E-1,-1.1116767E-1,-9.5940635E-2,9.136402E-2,5.1537966E-3,-3.2502168E-1,-5.337115E-2,1.2598748E-2,-7.7279843E-4,-6.654257E-2],"categories":[],"categories_nodes":[],"categories_segments":[],"categories_sizes":[],"default_left":[0,0,0,0,0,0,0,0,0,0,0,0,0,0,0],"id":25,"left_children":[1,-1,3,5,-1,7,9,11,-1,-1,13,-1,-1,-1,-1],"loss_changes":[6.005111E0,0E0,1.7641553E0,3.2860696E0,0E0,7.2768235E0,1.9116755E0,1.680148E0,0E0,0E0,1.0345798E0,0E0,0E0,0E0,0E0],"parents":[2147483647,0,0,2,2,3,3,5,5,6,6,7,7,10,10],"right_children":[2,-1,4,6,-1,8,10,12,-1,-1,14,-1,-1,-1,-1],"split_conditions":[3.9E1,-9.800121E-2,1.9779E2,1E0,-2.9194668E-2,9.725E1,2.86E1,2.8E1,9.136402E-2,5.1537966E-3,9.273E1,-5.337115E-2,1.2598748E-2,-7.7279843E-4,-6.654257E-2],"split_indices":[0,0,3,13,0,3,4,4,0,0,3,0,0,0,0],"split_type":[0,0,0,0,0,0,0,0,0,0,0,0,0,0,0],"sum_hessian":[1.3825612E2,1.1894309E1,1.263618E2,9.5439575E1,3.0922228E1,4.312525E1,5.2314323E1,2.3383816E1,1.9741434E1,2.8959332E1,2.3354992E1,1.0114942E1,1.3268874E1,1.0167857E1,1.3187136E1],"tree_param":{"num_deleted":"0","num_feature":"15","num_nodes":"15","size_leaf_vector":"1"}},{"base_weights":[-1.5194128E-1,-5.565219E-2,-3.7796985E-2,4.5985937E-2,-1.1388199E-1,-4.8898514E-2,-0E0],"categories":[],"categories_nodes":[],"categories_segments":[],"categories_sizes":[],"default_left":[0,0,0,0,0,0,0],"id":26,"left_children":[1,-1,3,-1,5,-1,-1],"loss_changes":[3.9212751E0,0E0,2.7709374E0,0E0,2.5023298E0,0E0,0E0],"parents":[2147483647,0,0,2,2,4,4],"right_children":[2,-1,4,-1,6,-1,-1],"split_conditions":[5.7E1,-5.565219E-2,2.45E1,4.5985937E-2,2.81E1,-4.8898514E-2,-0E0],"split_indices":[0,0,4,0,4,0,0],"split_type":[0,0,0,0,0,0,0],"sum_hessian":[1.3557402E2,3.759682E1,9.79772E1,1.4168527E1,8.380868E1,2.5139286E1,5.8669388E1],"tree_param":{"num_deleted":"0","num_feature":"15","num_nodes":"7","size_leaf_vector":"1"}},{"base_weights":[-6.9713525E-2,-3.5582653E-1,2.0118043E-2,-8.52438E-2,-1.6969052E-1,8.765123E-2,-1.922568E-1,2.195462E-2,-6.401309E-2,-7.261892E-2,2.4372284E-1,-7.8920364E-2,1.6040508E-2,-3.3026516E-2,1.492043E-2,7.917966E-2,1.2055184E-2,-3.1375553E-2,6.3855246E-2],"categories":[],"categories_nodes":[],"categories_segments":[],"categories_sizes":[],"default_left":[0,0,0,0,0,0,0,0,0,0,0,0,0,0,0,0,0,0,0],"id":27,"left_children":[1,3,5,-1,7,9,11,-1,-1,13,15,-1,-1,-1,-1,-1,17,-1,-1],"loss_changes":[3.7257047E0,1.2548203E0,1.3911599E0,0E0,2.7873788E0,2.1325998E0,3.2550087E0,0E0,0E0,1.3806646E0,3.1608841E0,0E0,0E0,0E0,0E0,0E0,3.5938907E0,0E0,0E0],"parents":[2147483647,0,0,1,1,2,2,4,4,5,5,6,6,9,9,10,10,16,16],"right_children":[2,4,6,-1,8,10,12,-1,-1,14,16,-1,-1,-1,-1,-1,18,-1,-1],"split_conditions":[5.7E1,2.73E1,3.31E1,-8.52438E-2,3.16E1,2.8E1,1.8299E2,2.195462E-2,-6.401309E-2,9.725E1,2.82E1,-7.8920364E-2,1.6040508E-2,-3.3026516E-2,1.492043E-2,7.917966E-2,3.1E1,-3.1375553E-2,6.3855246E-2],"split_indices":[0,4,4,0,4,4,3,0,0,3,4,0,0,0,0,0,4,0,0],"split_type":[0,0,0,0,0,0,0,0,0,0,0,0,0,0,0,0,0,0,0],"sum_hessian":[1.3498602E2,3.381764E1,1.0116839E2,1.1074619E1,2.274302E1,7.953343E1,2.1634954E1,1.0099415E1,1.2643605E1,3.7102654E1,4.243078E1,1.0164266E1,1.1470689E1,2.0743876E1,1.6358776E1,1.5024609E1,2.740617E1,1.7099092E1,1.0307077E1],"tree_param":{"num_deleted":"0","num_feature":"15","num_nodes":"19","size_leaf_vector":"1"}},{"base_weights":[-4.470678E-2,-2.3436595E-1,6.5098174E-2,-0E0,-3.4389246E-1,7.146535E-2,-5.6610692E-2,-4.8784763E-3,-6.37193E-2,-1.9095095E-1,3.584296E-2,-0E0,-3.330743E-1,-1.1357898E-2,-7.165831E-2],"categories":[],"categories_nodes":[],"categories_segments":[],"categories_sizes":[],"default_left":[0,0,0,0,0,0,0,0,0,0,0,0,0,0,0],"id":28,"left_children":[1,3,5,-1,7,-1,9,-1,-1,11,-1,-1,13,-1,-1],"loss_changes":[2.965558E0,1.4514811E0,5.3135705E0,0E0,1.2345319E0,0E0,2.925935E0,0E0,0E0,1.2013615E0,0E0,0E0,9.5504403E-1,0E0,0E0],"parents":[2147483647,0,0,1,1,2,2,4,4,6,6,9,9,12,12],"right_children":[2,4,6,-1,8,-1,10,-1,-1,12,-1,-1,14,-1,-1],"split_conditions":[2.8E1,7.914E1,2.82E1,-0E0,2.43E1,7.146535E-2,3.63E1,-4.8784763E-3,-6.37193E-2,1E0,3.584296E-2,-0E0,3.15E1,-1.1357898E-2,-7.165831E-2],"split_indices":[4,3,4,0,4,0,4,0,0,13,0,0,4,0,0],"split_type":[0,0,0,0,0,0,0,0,0,0,0,0,0,0,0],"sum_hessian":[1.35742E2,5.1963036E1,8.377897E1,1.5813985E1,3.614905E1,1.772408E1,6.6054886E1,1.3351315E1,2.2797735E1,4.867728E1,1.7377607E1,2.217392E1,2.650336E1,1.4253141E1,1.2250218E1],"tree_param":{"num_deleted":"0","num_feature":"15","num_nodes":"15","size_leaf_vector":"1"}},{"base_weights":[3.433854E-2,-5.2930284E-2,8.158272E-2,1.4708592E-1,-1.1739829E-2,7.103086E-2,8.6131945E-2,-5.341809E-2,2.822948E-1,1.238482E-2,-3.224267E-2,-0E0,7.103106E-2],"categories":[],"categories_nodes":[],"categories_segments":[],"categories_sizes":[],"default_left":[0,0,0,0,0,0,0,0,0,0,0,0,0],"id":29,"left_children":[1,-1,3,5,-1,7,-1,9,11,-1,-1,-1,-1],"loss_changes":[2.636995E0,0E0,1.4612973E0,3.130538E0,0E0,2.3759618E0,0E0,1.585675E0,2.6962526E0,0E0,0E0,0E0,0E0],"parents":[2147483647,0,0,2,2,3,3,5,5,7,7,8,8],"right_children":[2,-1,4,6,-1,8,-1,10,12,-1,-1,-1,-1],"split_conditions":[4.2E1,-5.2930284E-2,1.9779E2,1.623E2,-1.1739829E-2,7.4E1,8.6131945E-2,1E0,1E0,1.238482E-2,-3.224267E-2,-0E0,7.103106E-2],"split_indices":[0,0,3,3,0,0,0,13,9,0,0,0,0],"split_type":[0,0,0,0,0,0,0,0,0,0,0,0,0],"sum_hessian":[1.368155E2,1.1444815E1,1.2537069E2,9.379459E1,3.15761E1,8.3374855E1,1.0419738E1,5.0561863E1,3.2812992E1,2.6674885E1,2.3886978E1,1.5229516E1,1.7583473E1],"tree_param":{"num_deleted":"0","num_feature":"15","num_nodes":"13","size_leaf_vector":"1"}},{"base_weights":[-9.9097386E-2,-3.191515E-1,-3.5431024E-2,-7.249625E-2,-0E0,1.2147525E-2,-1.197367E-1,-8.3739795E-2,-0E0,3.3651266E-2,-1.2084214E-1,-4.2524837E-2,1.9947492E-2],"categories":[],"categories_nodes":[],"categories_segments":[],"categories_sizes":[],"default_left":[0,0,0,0,0,0,0,0,0,0,0,0,0],"id":30,"left_children":[1,3,5,-1,-1,-1,7,-1,9,-1,11,-1,-1],"loss_changes":[1.5899477E0,2.3509765E0,1.166757E0,0E0,0E0,0E0,4.346047E0,0E0,1.7539883E0,0E0,2.226478E0,0E0,0E0],"parents":[2147483647,0,0,1,1,2,2,6,6,8,8,10,10],"right_children":[2,4,6,-1,-1,-1,8,-1,10,-1,12,-1,-1],"split_conditions":[2.61E1,7.8E1,2.82E1,-7.249625E-2,-0E0,1.2147525E-2,2.96E1,-8.3739795E-2,3.21E1,3.3651266E-2,6.8E1,-4.2524837E-2,1.9947492E-2],"split_indices":[4,0,4,0,0,0,4,0,4,0,0,0,0],"split_type":[0,0,0,0,0,0,0,0,0,0,0,0,0],"sum_hessian":[1.315178E2,2.6552979E1,1.0496483E2,1.6066862E1,1.0486117E1,3.8199764E1,6.676507E1,1.2419856E1,5.434521E1,1.7764969E1,3.6580242E1,2.2360258E1,1.4219983E1],"tree_param":{"num_deleted":"0","num_feature":"15","num_nodes":"13","size_leaf_vector":"1"}},{"base_weights":[-6.980138E-2,1.9343758E-1,-1.5824808E-1,-0E0,7.3369205E-2,-7.64654E-2,-7.9049386E-2,-3.0567206E-2,3.1026123E-2,3.136566E-2,-1.7822869E-1,-3.532411E-2,-0E0,2.9257508E-2,-3.0008193E-2],"categories":[],"categories_nodes":[],"categories_segments":[],"categories_sizes":[],"default_left":[0,0,0,0,0,0,0,0,0,0,0,0,0,0,0],"id":31,"left_children":[1,3,5,7,-1,-1,9,-1,-1,-1,11,-1,13,-1,-1],"loss_changes":[3.0681286E0,2.2396417E0,2.9306445E0,1.201622E0,0E0,0E0,2.7448769E0,0E0,0E0,0E0,1.2160978E0,0E0,1.1963586E0,0E0,0E0],"parents":[2147483647,0,0,1,1,2,2,3,3,6,6,10,10,12,12],"right_children":[2,4,6,8,-1,-1,10,-1,-1,-1,12,-1,14,-1,-1],"split_conditions":[7.914E1,7.265E1,5.1E1,2.81E1,7.3369205E-2,-7.64654E-2,6E1,-3.0567206E-2,3.1026123E-2,3.136566E-2,3.14E1,-3.532411E-2,3.5E1,2.9257508E-2,-3.0008193E-2],"split_indices":[3,3,0,4,0,0,0,0,0,0,4,0,4,0,0],"split_type":[0,0,0,0,0,0,0,0,0,0,0,0,0,0,0],"sum_hessian":[1.3174106E2,3.0951431E1,1.0078962E2,2.0622286E1,1.0329146E1,1.3856126E1,8.6933495E1,1.0384537E1,1.0237749E1,1.8727343E1,6.820615E1,4.5919132E1,2.2287016E1,1.1983595E1,1.0303421E1],"tree_param":{"num_deleted":"0","num_feature":"15","num_nodes":"15","size_leaf_vector":"1"}},{"base_weights":[-4.9215917E-2,-1.1543791E-1,1.6651756E-1,-3.0253524E-1,5.946187E-2,8.706022E-2,-1.3463225E-2,-1.505017E-1,-6.826498E-2,7.86323E-2,-7.046617E-2,-3.5033575E-1,2.1758083E-2,-4.8729055E-2,6.1399774E-3,-8.8943385E-2,-0E0],"categories":[],"categories_nodes":[],"categories_segments":[],"categories_sizes":[],"default_left":[0,0,0,0,0,0,0,0,0,0,0,0,0,0,0,0,0],"id":32,"left_children":[1,3,5,7,9,-1,-1,11,-1,-1,13,15,-1,-1,-1,-1,-1],"loss_changes":[1.7743715E0,3.4327488E0,4.117943E0,1.156723E0,3.9113834E0,0E0,0E0,2.2018416E0,0E0,0E0,1.6483464E0,2.3723366E0,0E0,0E0,0E0,0E0,0E0],"parents":[2147483647,0,0,1,1,2,2,3,3,4,4,7,7,10,10,11,11],"right_children":[2,4,6,8,10,-1,-1,12,-1,-1,14,16,-1,-1,-1,-1,-1],"split_conditions":[1E0,1.0134E2,1.0234E2,8.343E1,1.1264E2,8.706022E-2,-1.3463225E-2,7.605E1,-6.826498E-2,7.86323E-2,6.1E1,2.8E1,2.1758083E-2,-4.8729055E-2,6.1399774E-3,-8.8943385E-2,-0E0],"split_indices":[1,3,3,3,3,0,0,3,0,0,0,4,0,0,0,0,0],"split_type":[0,0,0,0,0,0,0,0,0,0,0,0,0,0,0,0,0],"sum_hessian":[1.2562756E2,9.883365E1,2.6793915E1,4.9559566E1,4.9274086E1,1.0062786E1,1.6731129E1,3.1734165E1,1.7825401E1,1.0239759E1,3.9034325E1,2.082267E1,1.0911496E1,1.2321318E1,2.6713009E1,1.0258858E1,1.0563812E1],"tree_param":{"num_deleted":"0","num_feature":"15","num_nodes":"17","size_leaf_vector":"1"}},{"base_weights":[-6.577342E-3,-5.896934E-2,4.4301517E-2,-9.520657E-2,1.420959E-1,3.068665E-2,-4.908508E-2,-0E0,3.7235424E-1,3.2691367E-2,-2.6624223E-2,2.7291006E-1,-2.700405E-1,9.242535E-3,9.038589E-2,8.144055E-2,-0E0,-7.065522E-2,-0E0],"categories":[],"categories_nodes":[],"categories_segments":[],"categories_sizes":[],"default_left":[0,0,0,0,0,0,0,0,0,0,0,0,0,0,0,0,0,0,0],"id":33,"left_children":[1,-1,3,5,7,9,-1,11,13,-1,-1,15,17,-1,-1,-1,-1,-1,-1],"loss_changes":[3.2351265E0,0E0,1.6122653E0,1.8353415E0,2.070612E0,1.5838792E0,0E0,3.440312E0,1.868505E0,0E0,0E0,2.690393E0,1.5969981E0,0E0,0E0,0E0,0E0,0E0,0E0],"parents":[2147483647,0,0,2,2,3,3,4,4,5,5,7,7,8,8,11,11,12,12],"right_children":[2,-1,4,6,8,10,-1,12,14,-1,-1,16,18,-1,-1,-1,-1,-1,-1],"split_conditions":[2.39E1,-5.896934E-2,1E0,1.2437E2,7.4E1,1E0,-4.908508E-2,6E1,1E0,3.2691367E-2,-2.6624223E-2,1E0,1.4644E2,9.242535E-3,9.038589E-2,8.144055E-2,-0E0,-7.065522E-2,-0E0],"split_indices":[4,0,9,3,0,5,0,0,5,0,0,13,3,0,0,0,0,0,0],"split_type":[0,0,0,0,0,0,0,0,0,0,0,0,0,0,0,0,0,0,0],"sum_hessian":[1.2903853E2,1.4288168E1,1.1475036E2,4.4277065E1,7.04733E1,2.9108276E1,1.516879E1,4.568894E1,2.4784355E1,1.6590374E1,1.2517902E1,2.3962727E1,2.1726212E1,1.4217445E1,1.0566909E1,1.1105934E1,1.2856793E1,1.0495469E1,1.1230743E1],"tree_param":{"num_deleted":"0","num_feature":"15","num_nodes":"19","size_leaf_vector":"1"}},{"base_weights":[1.3722171E-2,2.0227526E-1,-3.6793195E-2,5.5763874E-2,-1.1995E-2,-7.305632E-2,2.72775E-2,1.3566062E-1,-1.5690506E-1,-0E0,8.264563E-2,-5.040375E-2,8.581378E-3,2.639143E-2,-2.135941E-2],"categories":[],"categories_nodes":[],"categories_segments":[],"categories_sizes":[],"default_left":[0,0,0,0,0,0,0,0,0,0,0,0,0,0,0],"id":34,"left_children":[1,3,5,-1,-1,-1,7,9,11,13,-1,-1,-1,-1,-1],"loss_changes":[1.355487E0,2.2725623E0,3.7234356E0,0E0,0E0,0E0,1.7501174E0,3.6001325E0,1.790472E0,1.5866455E0,0E0,0E0,0E0,0E0,0E0],"parents":[2147483647,0,0,1,1,2,2,6,6,7,7,8,8,9,9],"right_children":[2,4,6,-1,-1,-1,8,10,12,14,-1,-1,-1,-1,-1],"split_conditions":[7.914E1,1E0,8.611E1,5.5763874E-2,-1.1995E-2,-7.305632E-2,1.9779E2,1.5893E2,2.2129E2,1E0,8.264563E-2,-5.040375E-2,8.581378E-3,2.639143E-2,-2.135941E-2],"split_indices":[3,5,3,0,0,0,3,3,3,13,0,0,0,0,0],"split_type":[0,0,0,0,0,0,0,0,0,0,0,0,0,0,0],"sum_hessian":[1.2900786E2,2.9948126E1,9.905973E1,1.8227346E1,1.1720778E1,1.1625238E1,8.7434494E1,5.7571682E1,2.986281E1,4.6408524E1,1.1163159E1,1.6123838E1,1.3738973E1,2.2080341E1,2.4328182E1],"tree_param":{"num_deleted":"0","num_feature":"15","num_nodes":"15","size_leaf_vector":"1"}},{"base_weights":[-3.1285077E-2,-2.3765971E-1,3.792548E-2,-0E0,-5.4334033E-2,-2.3534043E-2,9.617592E-2,2.3468894E-1,-2.506502E-2,4.9331944E-2,-0E0,-3.8564708E-2,8.700123E-3],"categories":[],"categories_nodes":[],"categories_segments":[],"categories_sizes":[],"default_left":[0,0,0,0,0,0,0,0,0,0,0,0,0],"id":35,"left_children":[1,3,5,-1,-1,-1,7,9,11,-1,-1,-1,-1],"loss_changes":[1.9913477E0,1.631902E0,1.1492805E0,0E0,0E0,0E0,1.454299E0,1.1193302E0,1.1404792E0,0E0,0E0,0E0,0E0],"parents":[2147483647,0,0,1,1,2,2,6,6,7,7,8,8],"right_children":[2,4,6,-1,-1,-1,8,10,12,-1,-1,-1,-1],"split_conditions":[5.8E1,8.823E1,7.451E1,-0E0,-5.4334033E-2,-2.3534043E-2,2.84E1,1.1669E2,3.1E1,4.9331944E-2,-0E0,-3.8564708E-2,8.700123E-3],"split_indices":[0,3,3,0,0,0,4,3,4,0,0,0,0],"split_type":[0,0,0,0,0,0,0,0,0,0,0,0,0],"sum_hessian":[1.2861516E2,3.4603573E1,9.401159E1,1.4229541E1,2.0374033E1,1.7004276E1,7.700732E1,3.848924E1,3.8518074E1,2.2383135E1,1.6106104E1,1.1462295E1,2.705578E1],"tree_param":{"num_deleted":"0","num_feature":"15","num_nodes":"13","size_leaf_vector":"1"}},{"base_weights":[3.5920158E-2,-3.7084103E-2,7.541425E-2,-3.0253364E-2,1.7374042E-1,2.0167947E-2,-1.4538698E-1,-3.3230122E-2,2.7491495E-1,-5.7975844E-2,9.236734E-3,8.476515E-2,1.6193224E-1,2.9908802E-2,-2.2460256E-2,4.2594818E-4,5.683135E-2],"categories":[],"categories_nodes":[],"categories_segments":[],"categories_sizes":[],"default_left":[0,0,0,0,0,0,0,0,0,0,0,0,0,0,0,0,0],"id":36,"left_children":[1,-1,3,5,7,-1,9,-1,11,-1,13,-1,15,-1,-1,-1,-1],"loss_changes":[1.5292996E0,0E0,1.3508265E0,1.1675351E0,2.8945284E0,0E0,1.9915073E0,0E0,1.6829252E0,0E0,9.7010785E-1,0E0,1.6004833E0,0E0,0E0,0E0,0E0],"parents":[2147483647,0,0,2,2,3,3,4,4,6,6,8,8,10,10,12,12],"right_children":[2,-1,4,6,8,-1,10,-1,12,-1,14,-1,16,-1,-1,-1,-1],"split_conditions":[6.67E1,-3.7084103E-2,1E0,2.76E1,2.56E1,2.0167947E-2,1.0074E2,-3.3230122E-2,2.78E1,-5.7975844E-2,1.9779E2,8.476515E-2,3.4E1,2.9908802E-2,-2.2460256E-2,4.2594818E-4,5.683135E-2],"split_indices":[3,0,12,4,4,0,3,0,4,0,3,0,4,0,0,0,0],"split_type":[0,0,0,0,0,0,0,0,0,0,0,0,0,0,0,0,0],"sum_hessian":[1.3152333E2,1.2127761E1,1.1939558E2,5.4200092E1,6.519549E1,1.835707E1,3.584302E1,1.0965093E1,5.4230392E1,1.3495089E1,2.2347933E1,1.0568941E1,4.366145E1,1.1826609E1,1.0521324E1,2.9595957E1,1.4065494E1],"tree_param":{"num_deleted":"0","num_feature":"15","num_nodes":"17","size_leaf_vector":"1"}},{"base_weights":[-7.413477E-3,-1.7951591E-1,8.458793E-2,-6.581232E-2,-6.375044E-2,5.5397265E-3,5.733733E-2,1.9854892E-2,-3.629725E-2,2.1853872E-1,-1.6500682E-1,5.6626357E-2,-2.1530418E-3,-6.506715E-2,2.6220247E-2,3.5789814E-2,-1.9056253E-2],"categories":[],"categories_nodes":[],"categories_segments":[],"categories_sizes":[],"default_left":[0,0,0,0,0,0,0,0,0,0,0,0,0,0,0,0,0],"id":37,"left_children":[1,3,5,-1,7,9,-1,-1,-1,11,13,-1,-1,-1,15,-1,-1],"loss_changes":[2.1248477E0,1.380198E0,1.97826E0,0E0,1.846878E0,2.5683901E0,0E0,0E0,0E0,1.963373E0,2.6924033E0,0E0,0E0,0E0,1.0716896E0,0E0,0E0],"parents":[2147483647,0,0,1,1,2,2,4,4,5,5,9,9,10,10,14,14],"right_children":[2,4,6,-1,8,10,-1,-1,-1,12,14,-1,-1,-1,16,-1,-1],"split_conditions":[2.81E1,7.348E1,1E0,-6.581232E-2,9.866E1,3.15E1,5.733733E-2,1.9854892E-2,-3.629725E-2,1.0552E2,1.0486E2,5.6626357E-2,-2.1530418E-3,-6.506715E-2,1.9633E2,3.5789814E-2,-1.9056253E-2],"split_indices":[4,3,2,0,3,4,0,0,0,3,3,0,0,0,3,0,0],"split_type":[0,0,0,0,0,0,0,0,0,0,0,0,0,0,0,0,0],"sum_hessian":[1.289576E2,4.7474167E1,8.148344E1,1.0426284E1,3.7047882E1,6.8684845E1,1.279859E1,1.6862782E1,2.0185102E1,3.234791E1,3.6336933E1,1.826102E1,1.4086892E1,1.4325192E1,2.201174E1,1.0608709E1,1.1403029E1],"tree_param":{"num_deleted":"0","num_feature":"15","num_nodes":"17","size_leaf_vector":"1"}},{"base_weights":[-4.2845882E-2,-7.272093E-2,2.2976752E-3,-5.179601E-2,5.497107E-2,1.6494495E-1,-4.845856E-2,-4.3443926E-3,2.8073865E-1,-4.145992E-2,5.5856793E-3,-0E0,5.314834E-2],"categories":[],"categories_nodes":[],"categories_segments":[],"categories_sizes":[],"default_left":[0,0,0,0,0,0,0,0,0,0,0,0,0],"id":38,"left_children":[1,-1,3,-1,5,7,9,-1,11,-1,-1,-1,-1],"loss_changes":[3.3382347E0,0E0,2.196583E0,0E0,1.2720788E0,1.4200487E0,1.4484905E0,0E0,1.420124E0,0E0,0E0,0E0,0E0],"parents":[2147483647,0,0,2,2,4,4,5,5,6,6,8,8],"right_children":[2,-1,4,-1,6,8,10,-1,12,-1,-1,-1,-1],"split_conditions":[4.5E1,-7.272093E-2,6.802E1,-5.179601E-2,2.87E1,8.772E1,3.14E1,-4.3443926E-3,2.56E1,-4.145992E-2,5.5856793E-3,-0E0,5.314834E-2],"split_indices":[0,0,3,0,4,3,4,0,4,0,0,0,0],"split_type":[0,0,0,0,0,0,0,0,0,0,0,0,0],"sum_hessian":[1.2617075E2,1.1019817E1,1.1515094E2,1.147247E1,1.0367847E2,5.346596E1,5.021251E1,1.756185E1,3.590411E1,1.4396432E1,3.581608E1,1.052165E1,2.5382458E1],"tree_param":{"num_deleted":"0","num_feature":"15","num_nodes":"13","size_leaf_vector":"1"}},{"base_weights":[2.6073467E-2,-2.3553325E-2,3.0117637E-1,-1.6239695E-1,7.740784E-2,1.04261056E-1,-1.604811E-2,1.6214566E-3,-5.1463235E-2,2.1154013E-2,-1.3651264E-2],"categories":[],"categories_nodes":[],"categories_segments":[],"categories_sizes":[],"default_left":[0,0,0,0,0,0,0,0,0,0,0],"id":39,"left_children":[1,3,5,7,9,-1,-1,-1,-1,-1,-1],"loss_changes":[1.9808524E0,1.589425E0,5.205453E0,2.256563E0,9.771175E-1,0E0,0E0,0E0,0E0,0E0,0E0],"parents":[2147483647,0,0,1,1,2,2,3,3,4,4],"right_children":[2,4,6,8,10,-1,-1,-1,-1,-1,-1],"split_conditions":[1E0,6.8E1,6.2E1,1E0,1.9779E2,1.04261056E-1,-1.604811E-2,1.6214566E-3,-5.1463235E-2,2.1154013E-2,-1.3651264E-2],"split_indices":[14,0,0,5,3,0,0,0,0,0,0],"split_type":[0,0,0,0,0,0,0,0,0,0,0],"sum_hessian":[1.2979391E2,1.0812731E2,2.1666603E1,4.8385586E1,5.9741726E1,1.0550758E1,1.1115845E1,2.6085548E1,2.2300037E1,4.349756E1,1.624417E1],"tree_param":{"num_deleted":"0","num_feature":"15","num_nodes":"11","size_leaf_vector":"1"}},{"base_weights":[-1.7619958E-2,-6.4608365E-2,3.1656194E-2,-0E0,-4.7706883E-2,9.418712E-2,-1.3104287E-1,-6.7989356E-3,5.8170512E-2,2.8080001E-2,-3.44452E-1,-4.0891565E-2,1.1755909E-2,-8.167201E-2,-5.43608E-3],"categories":[],"categories_nodes":[],"categories_segments":[],"categories_sizes":[],"default_left":[0,0,0,0,0,0,0,0,0,0,0,0,0,0,0],"id":40,"left_children":[1,3,-1,5,-1,7,9,11,-1,-1,13,-1,-1,-1,-1],"loss_changes":[1.4489253E0,1.9931564E0,0E0,1.1773998E0,0E0,2.18196E0,3.1867552E0,1.3530874E0,0E0,0E0,1.8151894E0,0E0,0E0,0E0,0E0],"parents":[2147483647,0,0,1,1,3,3,5,5,6,6,7,7,10,10],"right_children":[2,4,-1,6,-1,8,10,12,-1,-1,14,-1,-1,-1,-1],"split_conditions":[3.66E1,1E0,3.1656194E-2,2.82E1,-4.7706883E-2,2.8E1,6E1,5.9E1,5.8170512E-2,2.8080001E-2,7.2E1,-4.0891565E-2,1.1755909E-2,-8.167201E-2,-5.43608E-3],"split_indices":[4,2,0,4,0,4,0,0,0,0,0,0,0,0,0],"split_type":[0,0,0,0,0,0,0,0,0,0,0,0,0,0,0],"sum_hessian":[1.2785945E2,1.1093685E2,1.6922604E1,9.3016E1,1.7920849E1,5.2099888E1,4.091611E1,3.925616E1,1.2843728E1,1.4323426E1,2.6592686E1,1.0943677E1,2.8312483E1,1.2294392E1,1.4298293E1],"tree_param":{"num_deleted":"0","num_feature":"15","num_nodes":"15","size_leaf_vector":"1"}},{"base_weights":[-5.0341904E-2,5.2009476E-3,-1.671419E-1,-5.8377888E-2,3.570934E-2,1.6930701E-2,-2.8982508E-1,-2.7507293E-1,6.7661494E-2,-5.8319908E-2,-1.9668196E-3,-6.4031193E-3,-7.1978725E-2,4.8527762E-2,-1.2446941E-1,4.293766E-3,-4.5676135E-2],"categories":[],"categories_nodes":[],"categories_segments":[],"categories_sizes":[],"default_left":[0,0,0,0,0,0,0,0,0,0,0,0,0,0,0,0,0],"id":41,"left_children":[1,3,5,7,-1,-1,9,11,13,-1,-1,-1,-1,-1,15,-1,-1],"loss_changes":[9.588891E-1,1.6006043E0,1.8089134E0,1.9714881E0,0E0,0E0,1.1503649E0,1.2188728E0,2.553487E0,0E0,0E0,0E0,0E0,0E0,1.0701844E0,0E0,0E0],"parents":[2147483647,0,0,1,1,2,2,3,3,6,6,7,7,8,8,14,14],"right_children":[2,4,6,8,-1,-1,10,12,14,-1,-1,-1,-1,-1,16,-1,-1],"split_conditions":[7.5E1,1E0,2.51E1,5.7E1,3.570934E-2,1.6930701E-2,1.3807E2,1.0486E2,6.4E1,-5.8319908E-2,-1.9668196E-3,-6.4031193E-3,-7.1978725E-2,4.8527762E-2,2.84E1,4.293766E-3,-4.5676135E-2],"split_indices":[0,1,4,0,0,0,3,3,0,0,0,0,0,0,4,0,0],"split_type":[0,0,0,0,0,0,0,0,0,0,0,0,0,0,0,0,0],"sum_hessian":[1.2938322E2,8.3843185E1,4.554004E1,6.593244E1,1.7910744E1,1.1602266E1,3.393777E1,2.6125696E1,3.9806744E1,1.9747986E1,1.4189786E1,1.6109976E1,1.0015719E1,1.6680588E1,2.3126158E1,1.1991983E1,1.1134174E1],"tree_param":{"num_deleted":"0","num_feature":"15","num_nodes":"17","size_leaf_vector":"1"}},{"base_weights":[2.2872873E-2,-1.3113292E-1,1.3557236E-1,-2.2416039E-1,1.7609876E-2,4.9030613E-2,6.3251376E-2,-7.077118E-2,-7.722129E-2,5.009307E-2,-1.9356668E-2,-4.1465934E-2,1.0121535E-2,-1.2901235E-1,2.9212145E-2,1.6158326E-2,-5.0332773E-2],"categories":[],"categories_nodes":[],"categories_segments":[],"categories_sizes":[],"default_left":[0,0,0,0,0,0,0,0,0,0,0,0,0,0,0,0,0],"id":42,"left_children":[1,3,5,7,-1,9,-1,-1,11,-1,13,-1,-1,15,-1,-1,-1],"loss_changes":[2.2351205E0,1.3578229E0,1.9286692E0,1.427455E0,0E0,1.72487E0,0E0,0E0,1.2922596E0,0E0,1.323354E0,0E0,0E0,2.6712363E0,0E0,0E0,0E0],"parents":[2147483647,0,0,1,1,2,2,3,3,5,5,8,8,10,10,13,13],"right_children":[2,4,6,8,-1,10,-1,-1,12,-1,14,-1,-1,16,-1,-1,-1],"split_conditions":[1E0,1E0,7.9E1,2.66E1,1.7609876E-2,5.2E1,6.3251376E-2,-7.077118E-2,1E0,5.009307E-2,2.0304E2,-4.1465934E-2,1.0121535E-2,2.83E1,2.9212145E-2,1.6158326E-2,-5.0332773E-2],"split_indices":[9,1,0,4,0,0,0,0,12,0,3,0,0,4,0,0,0],"split_type":[0,0,0,0,0,0,0,0,0,0,0,0,0,0,0,0,0],"sum_hessian":[1.2761636E2,5.1207287E1,7.640908E1,3.999122E1,1.1216069E1,6.331213E1,1.3096949E1,1.0687561E1,2.9303658E1,1.2139235E1,5.1172894E1,1.3088112E1,1.6215546E1,3.745382E1,1.3719076E1,1.7585922E1,1.9867895E1],"tree_param":{"num_deleted":"0","num_feature":"15","num_nodes":"17","size_leaf_vector":"1"}},{"base_weights":[-7.630542E-2,-6.902775E-2,-2.7367605E-2,-1.5284958E-1,6.684695E-2,-2.5963646E-1,2.8315965E-2,2.585295E-2,-7.665494E-2,-4.0679115E-1,-0E0,-3.9937645E-2,1.2050208E-2,-1.2383791E-2,-7.7062905E-2],"categories":[],"categories_nodes":[],"categories_segments":[],"categories_sizes":[],"default_left":[0,0,0,0,0,0,0,0,0,0,0,0,0,0,0],"id":43,"left_children":[1,-1,3,5,7,9,-1,-1,11,13,-1,-1,-1,-1,-1],"loss_changes":[2.3817124E0,0E0,1.432125E0,2.14834E0,1.2814455E0,1.4765711E0,0E0,0E0,1.2459329E0,9.915271E-1,0E0,0E0,0E0,0E0,0E0],"parents":[2147483647,0,0,2,2,3,3,4,4,5,5,8,8,9,9],"right_children":[2,-1,4,6,8,10,-1,-1,12,14,-1,-1,-1,-1,-1],"split_conditions":[4.5E1,-6.902775E-2,1E0,7.9E1,1.1775E2,3.08E1,2.8315965E-2,2.585295E-2,1E0,2.75E1,-0E0,-3.9937645E-2,1.2050208E-2,-1.2383791E-2,-7.7062905E-2],"split_indices":[0,0,12,0,3,4,0,0,13,4,0,0,0,0,0],"split_type":[0,0,0,0,0,0,0,0,0,0,0,0,0,0,0],"sum_hessian":[1.2537243E2,1.0344928E1,1.15027504E2,5.2458977E1,6.2568527E1,4.231845E1,1.0140525E1,3.5195335E1,2.737319E1,2.5875774E1,1.6442677E1,1.3245203E1,1.4127988E1,1.1303442E1,1.4572333E1],"tree_param":{"num_deleted":"0","num_feature":"15","num_nodes":"15","size_leaf_vector":"1"}},{"base_weights":[1.8175868E-2,2.3278196E-1,-3.2118198E-2,5.3737197E-2,-0E0,-4.711553E-2,2.3590544E-2,4.1981403E-2,-7.67673E-2,-1.767358E-1,3.321104E-2,9.163424E-3,-4.828939E-2],"categories":[],"categories_nodes":[],"categories_segments":[],"categories_sizes":[],"default_left":[0,0,0,0,0,0,0,0,0,0,0,0,0],"id":44,"left_children":[1,3,5,-1,-1,-1,7,-1,9,11,-1,-1,-1],"loss_changes":[1.536165E0,1.3619573E0,2.1135638E0,0E0,0E0,0E0,2.753006E0,0E0,2.0442421E0,2.620228E0,0E0,0E0,0E0],"parents":[2147483647,0,0,1,1,2,2,6,6,8,8,9,9],"right_children":[2,4,6,-1,-1,-1,8,-1,10,12,-1,-1,-1],"split_conditions":[7.682E1,1E0,2.56E1,5.3737197E-2,-0E0,-4.711553E-2,5.9E1,4.1981403E-2,1E0,2.82E1,3.321104E-2,9.163424E-3,-4.828939E-2],"split_indices":[3,5,4,0,0,0,0,0,2,4,0,0,0],"split_type":[0,0,0,0,0,0,0,0,0,0,0,0,0],"sum_hessian":[1.2819218E2,2.6709026E1,1.0148316E2,1.6247726E1,1.0461299E1,1.6180912E1,8.530225E1,2.3018187E1,6.2284065E1,4.9676987E1,1.2607079E1,2.031395E1,2.9363035E1],"tree_param":{"num_deleted":"0","num_feature":"15","num_nodes":"13","size_leaf_vector":"1"}},{"base_weights":[1.008544E-2,2.317281E-1,-5.9736464E-3,5.833693E-2,-7.3870993E-3],"categories":[],"categories_nodes":[],"categories_segments":[],"categories_sizes":[],"default_left":[0,0,0,0,0],"id":45,"left_children":[1,3,-1,-1,-1],"loss_changes":[1.7716731E0,2.1044092E0,0E0,0E0,0E0],"parents":[2147483647,0,0,1,1],"right_children":[2,4,-1,-1,-1],"split_conditions":[7.682E1,1E0,-5.9736464E-3,5.833693E-2,-7.3870993E-3],"split_indices":[3,5,0,0,0],"split_type":[0,0,0,0,0],"sum_hessian":[1.3147041E2,2.8734287E1,1.0273612E2,1.7724255E1,1.1010033E1],"tree_param":{"num_deleted":"0","num_feature":"15","num_nodes":"5","size_leaf_vector":"1"}},{"base_weights":[-5.7706695E-2,-2.565071E-1,3.7598744E-2,-6.0858596E-2,-7.137806E-2,2.4728361E-1,-1.377268E-1,-3.6130253E-2,9.961765E-3,5.122803E-1,-2.4526091E-2,1.3287017E-2,-3.001814E-1,1.1137113E-2,1.1696644E-1,-5.8726743E-2,-0E0],"categories":[],"categories_nodes":[],"categories_segments":[],"categories_sizes":[],"default_left":[0,0,0,0,0,0,0,0,0,0,0,0,0,0,0,0,0],"id":46,"left_children":[1,3,5,7,-1,9,11,-1,-1,13,-1,-1,15,-1,-1,-1,-1],"loss_changes":[2.5386605E0,1.999852E0,3.1388047E0,9.771433E-1,0E0,4.8612843E0,1.8511448E0,0E0,0E0,3.4959579E0,0E0,0E0,1.0596068E0,0E0,0E0,0E0,0E0],"parents":[2147483647,0,0,1,1,2,2,3,3,5,5,6,6,9,9,12,12],"right_children":[2,4,6,8,-1,10,12,-1,-1,14,-1,-1,16,-1,-1,-1,-1],"split_conditions":[8.611E1,1E0,1E0,6.8E1,-7.137806E-2,1.9779E2,1E0,-3.6130253E-2,9.961765E-3,2.95E1,-2.4526091E-2,1.3287017E-2,2.0125E2,1.1137113E-2,1.1696644E-1,-5.8726743E-2,-0E0],"split_indices":[3,5,13,0,0,3,9,0,0,4,0,0,3,0,0,0,0],"split_type":[0,0,0,0,0,0,0,0,0,0,0,0,0,0,0,0,0],"sum_hessian":[1.2498558E2,4.2671764E1,8.231382E1,2.7314768E1,1.5356996E1,3.925365E1,4.3060165E1,1.2448305E1,1.4866463E1,2.5366686E1,1.3886965E1,1.5693978E1,2.7366188E1,1.3170723E1,1.2195964E1,1.71502E1,1.0215989E1],"tree_param":{"num_deleted":"0","num_feature":"15","num_nodes":"17","size_leaf_vector":"1"}},{"base_weights":[-2.7776184E-3,1.1358303E-1,-1.15218826E-1,-2.8174281E-2,2.3203188E-1,2.232669E-2,-2.1604916E-1,7.398497E-2,5.2042385E-3,-5.686347E-2,1.2135342E-2],"categories":[],"categories_nodes":[],"categories_segments":[],"categories_sizes":[],"default_left":[0,0,0,0,0,0,0,0,0,0,0],"id":47,"left_children":[1,3,5,-1,7,-1,9,-1,-1,-1,-1],"loss_changes":[1.6832969E0,2.3792272E0,2.0274887E0,0E0,2.5140603E0,0E0,3.8424807E0,0E0,0E0,0E0,0E0],"parents":[2147483647,0,0,1,1,2,2,4,4,6,6],"right_children":[2,4,6,-1,8,-1,10,-1,-1,-1,-1],"split_conditions":[1E0,5.7E1,7.682E1,-2.8174281E-2,6.6E1,2.232669E-2,1.7833E2,7.398497E-2,5.2042385E-3,-5.686347E-2,1.2135342E-2],"split_indices":[13,0,3,0,0,0,3,0,0,0,0],"split_type":[0,0,0,0,0,0,0,0,0,0,0],"sum_hessian":[1.2759926E2,5.9574383E1,6.802488E1,1.405167E1,4.5522713E1,1.5781634E1,5.2243244E1,1.4899147E1,3.0623564E1,3.17809E1,2.0462343E1],"tree_param":{"num_deleted":"0","num_feature":"15","num_nodes":"11","size_leaf_vector":"1"}},{"base_weights":[-2.8038057E-4,-4.69037E-2,3.1664595E-2,-3.5893845E-3,3.6789726E-2,3.8399663E-2,-4.8966866E-2,1.407149E-1,-1.2669581E-1,-2.5999097E-2,3.0212127E-2,-4.8507445E-2,-0E0],"categories":[],"categories_nodes":[],"categories_segments":[],"categories_sizes":[],"default_left":[0,0,0,0,0,0,0,0,0,0,0,0,0],"id":48,"left_children":[1,-1,3,5,-1,7,-1,9,11,-1,-1,-1,-1],"loss_changes":[1.7420936E0,0E0,1.2480962E0,1.841717E0,0E0,1.5471332E0,0E0,1.8578837E0,1.0751398E0,0E0,0E0,0E0,0E0],"parents":[2147483647,0,0,2,2,3,3,5,5,7,7,8,8],"right_children":[2,-1,4,6,-1,8,-1,10,12,-1,-1,-1,-1],"split_conditions":[4.8E1,-4.69037E-2,3.63E1,3.31E1,3.6789726E-2,1.1669E2,-4.8966866E-2,6.835E1,2.81E1,-2.5999097E-2,3.0212127E-2,-4.8507445E-2,-0E0],"split_indices":[0,0,4,4,0,3,0,3,4,0,0,0,0],"split_type":[0,0,0,0,0,0,0,0,0,0,0,0,0],"sum_hessian":[1.3046841E2,1.2086674E1,1.1838174E2,1.01668686E2,1.6713049E1,9.000294E1,1.1665746E1,5.828861E1,3.1714333E1,1.0496864E1,4.7791744E1,1.1045095E1,2.0669235E1],"tree_param":{"num_deleted":"0","num_feature":"15","num_nodes":"13","size_leaf_vector":"1"}},{"base_weights":[-8.9017E-3,-5.2321196E-2,2.566665E-2,6.661252E-2,-2.191187E-1,-1.847655E-3,4.596536E-2,-3.8109887E-1,4.9365526E-3,-6.634486E-2,-5.01652E-3],"categories":[],"categories_nodes":[],"categories_segments":[],"categories_sizes":[],"default_left":[0,0,0,0,0,0,0,0,0,0,0],"id":49,"left_children":[1,3,-1,5,7,-1,-1,9,-1,-1,-1],"loss_changes":[1.0629842E0,2.3123157E0,0E0,1.6854023E0,2.279507E0,0E0,0E0,9.768338E-1,0E0,0E0,0E0],"parents":[2147483647,0,0,1,1,3,3,4,4,7,7],"right_children":[2,4,-1,6,8,-1,-1,10,-1,-1,-1],"split_conditions":[3.63E1,1.0711E2,2.566665E-2,9.248E1,7.6E1,-1.847655E-3,4.596536E-2,2.0523E2,4.9365526E-3,-6.634486E-2,-5.01652E-3],"split_indices":[4,3,0,3,0,0,0,3,0,0,0],"split_type":[0,0,0,0,0,0,0,0,0,0,0],"sum_hessian":[1.2965576E2,1.1021637E2,1.943939E1,6.2002712E1,4.8213654E1,4.6733917E1,1.5268792E1,3.113737E1,1.7076286E1,2.1015606E1,1.0121762E1],"tree_param":{"num_deleted":"0","num_feature":"15","num_nodes":"11","size_leaf_vector":"1"}},{"base_weights":[-2.7922083E-2,3.155865E-2,-6.588313E-2,1.6003253E-1,-1.3624164E-1,6.716642E-2,-8.99137E-3,2.0557579E-2,-2.1035558E-1,-5.984632E-2,-5.0214034E-2,1.01720765E-2,-5.3809606E-2],"categories":[],"categories_nodes":[],"categories_segments":[],"categories_sizes":[],"default_left":[0,0,0,0,0,0,0,0,0,0,0,0,0],"id":50,"left_children":[1,-1,3,5,7,-1,-1,-1,9,-1,11,-1,-1],"loss_changes":[1.1846049E0,0E0,1.8097888E0,2.3603358E0,2.0089738E0,0E0,0E0,0E0,2.5596182E0,0E0,2.443968E0,0E0,0E0],"parents":[2147483647,0,0,2,2,3,3,4,4,8,8,10,10],"right_children":[2,-1,4,6,8,-1,-1,-1,10,-1,12,-1,-1],"split_conditions":[1E0,3.155865E-2,2.67E1,1E0,5.5E1,6.716642E-2,-8.99137E-3,2.0557579E-2,1.0074E2,-5.984632E-2,1E0,1.01720765E-2,-5.3809606E-2],"split_indices":[7,0,4,12,0,0,0,0,3,0,1,0,0],"split_type":[0,0,0,0,0,0,0,0,0,0,0,0,0],"sum_hessian":[1.2677923E2,1.2995477E1,1.1378375E2,2.4457659E1,8.9326096E1,1.0586986E1,1.3870673E1,1.5941249E1,7.338485E1,2.6678432E1,4.6706413E1,3.3315052E1,1.3391361E1],"tree_param":{"num_deleted":"0","num_feature":"15","num_nodes":"13","size_leaf_vector":"1"}},{"base_weights":[-3.6333967E-2,-1.4314151E-1,6.0891066E-2,-4.212302E-2,-6.791682E-2,-1.2548356E-1,3.6277443E-2,4.8448555E-2,-3.0713487E-2,-4.875608E-2,3.2276174E-3,3.4825377E-2,-2.0189354E-2],"categories":[],"categories_nodes":[],"categories_segments":[],"categories_sizes":[],"default_left":[0,0,0,0,0,0,0,0,0,0,0,0,0],"id":51,"left_children":[1,3,5,7,-1,9,-1,11,-1,-1,-1,-1,-1],"loss_changes":[1.3962919E0,2.0566664E0,2.716094E0,1.0693395E0,0E0,1.4839857E0,0E0,1.6110419E0,0E0,0E0,0E0,0E0,0E0],"parents":[2147483647,0,0,1,1,2,2,3,3,5,5,7,7],"right_children":[2,4,6,8,-1,10,-1,12,-1,-1,-1,-1,-1],"split_conditions":[1.0437E2,9.461E1,3.08E1,1E0,-6.791682E-2,1E0,3.6277443E-2,7.682E1,-3.0713487E-2,-4.875608E-2,3.2276174E-3,3.4825377E-2,-2.0189354E-2],"split_indices":[3,3,4,5,0,12,0,3,0,0,0,0,0],"split_type":[0,0,0,0,0,0,0,0,0,0,0,0,0],"sum_hessian":[1.2789962E2,6.434749E1,6.355213E1,5.2674988E1,1.16725E1,3.2524666E1,3.1027466E1,3.35833E1,1.9091686E1,1.3795118E1,1.872955E1,1.7811165E1,1.5772138E1],"tree_param":{"num_deleted":"0","num_feature":"15","num_nodes":"13","size_leaf_vector":"1"}},{"base_weights":[-8.868256E-3],"categories":[],"categories_nodes":[],"categories_segments":[],"categories_sizes":[],"default_left":[0],"id":52,"left_children":[-1],"loss_changes":[0E0],"parents":[2147483647],"right_children":[-1],"split_conditions":[-1.1576178E-3],"split_indices":[0],"split_type":[0],"sum_hessian":[1.2761491E2],"tree_param":{"num_deleted":"0","num_feature":"15","num_nodes":"1","size_leaf_vector":"1"}},{"base_weights":[8.042465E-3,1.0202457E-1,-2.3861603E-1,-1.9195476E-1,2.0509179E-1,-6.4309E-2,-0E0,-5.6204073E-2,-0E0,9.822636E-2,5.1804096E-2,2.1058841E-1,-2.8154338E-2,4.8974488E-2,-1.3496524E-2],"categories":[],"categories_nodes":[],"categories_segments":[],"categories_sizes":[],"default_left":[0,0,0,0,0,0,0,0,0,0,0,0,0,0,0],"id":53,"left_children":[1,3,5,7,9,-1,-1,-1,-1,11,-1,13,-1,-1,-1],"loss_changes":[2.811741E0,2.8450003E0,1.7332122E0,1.3133991E0,1.0788522E0,0E0,0E0,0E0,0E0,1.7306025E0,0E0,2.160382E0,0E0,0E0,0E0],"parents":[2147483647,0,0,1,1,2,2,3,3,4,4,9,9,11,11],"right_children":[2,4,6,8,10,-1,-1,-1,-1,12,-1,14,-1,-1,-1],"split_conditions":[3.31E1,2.56E1,1E0,7.8E1,2.97E1,-6.4309E-2,-0E0,-5.6204073E-2,-0E0,2.82E1,5.1804096E-2,7.7E1,-2.8154338E-2,4.8974488E-2,-1.3496524E-2],"split_indices":[4,4,12,0,4,0,0,0,0,4,0,0,0,0,0],"split_type":[0,0,0,0,0,0,0,0,0,0,0,0,0,0,0],"sum_hessian":[1.24521126E2,9.247355E1,3.204758E1,2.2092848E1,7.03807E1,1.4289096E1,1.7758484E1,1.1088317E1,1.1004531E1,4.806255E1,2.231815E1,3.7190807E1,1.0871743E1,2.5834534E1,1.1356273E1],"tree_param":{"num_deleted":"0","num_feature":"15","num_nodes":"15","size_leaf_vector":"1"}},{"base_weights":[-9.1162756E-2,-1.6118887E-1,1.08897224E-1,-5.0268564E-2,-2.4395045E-2,7.29302E-2,-1.3286068E-2,1.4879097E-1,-2.5911105E-1,5.6402385E-2,-1.1545989E-2,-7.38837E-2,-4.194753E-3],"categories":[],"categories_nodes":[],"categories_segments":[],"categories_sizes":[],"default_left":[0,0,0,0,0,0,0,0,0,0,0,0,0],"id":54,"left_children":[1,3,5,-1,7,-1,-1,9,11,-1,-1,-1,-1],"loss_changes":[1.8352853E0,2.6871946E0,3.268963E0,0E0,2.658467E0,0E0,0E0,2.6035733E0,1.5606052E0,0E0,0E0,0E0,0E0],"parents":[2147483647,0,0,1,1,2,2,4,4,7,7,8,8],"right_children":[2,4,6,-1,8,-1,-1,10,12,-1,-1,-1,-1],"split_conditions":[1E0,2.8E1,9.32E1,-5.0268564E-2,3.21E1,7.29302E-2,-1.3286068E-2,6.6E1,1.0658E2,5.6402385E-2,-1.1545989E-2,-7.38837E-2,-4.194753E-3],"split_indices":[1,4,3,0,4,0,0,0,3,0,0,0,0],"split_type":[0,0,0,0,0,0,0,0,0,0,0,0,0],"sum_hessian":[1.2724152E2,9.697227E1,3.0269257E1,3.4457985E1,6.2514282E1,1.0484725E1,1.9784533E1,3.4318302E1,2.8195982E1,1.683586E1,1.7482443E1,1.0339163E1,1.7856817E1],"tree_param":{"num_deleted":"0","num_feature":"15","num_nodes":"13","size_leaf_vector":"1"}},{"base_weights":[-2.5251914E-2],"categories":[],"categories_nodes":[],"categories_segments":[],"categories_sizes":[],"default_left":[0],"id":55,"left_children":[-1],"loss_changes":[0E0],"parents":[2147483647],"right_children":[-1],"split_conditions":[-3.2962586E-3],"split_indices":[0],"split_type":[0],"sum_hessian":[1.2652235E2],"tree_param":{"num_deleted":"0","num_feature":"15","num_nodes":"1","size_leaf_vector":"1"}},{"base_weights":[1.746021E-2,-6.972324E-2,2.3114616E-1,8.1181705E-2,-2.7237692E-1,3.4235877E-3,7.6634474E-2,-2.5364727E-2,1.7613435E-1,4.3744864E-3,-4.1761634E-1,5.3248197E-2,3.6812166E-3,-7.884116E-2,-5.637295E-3,-3.1153785E-2,4.953998E-2],"categories":[],"categories_nodes":[],"categories_segments":[],"categories_sizes":[],"default_left":[0,0,0,0,0,0,0,0,0,0,0,0,0,0,0,0,0],"id":56,"left_children":[1,3,5,7,9,-1,-1,-1,11,-1,13,-1,15,-1,-1,-1,-1],"loss_changes":[2.4547012E0,2.8041553E0,2.3799498E0,1.2627699E0,2.0239658E0,0E0,0E0,0E0,1.2229152E0,0E0,1.4926171E0,0E0,2.3342602E0,0E0,0E0,0E0,0E0],"parents":[2147483647,0,0,1,1,2,2,3,3,4,4,8,8,10,10,12,12],"right_children":[2,4,6,8,10,-1,-1,-1,12,-1,14,-1,16,-1,-1,-1,-1],"split_conditions":[1.623E2,2.82E1,3.44E1,7.009E1,7.682E1,3.4235877E-3,7.6634474E-2,-2.5364727E-2,8.343E1,4.3744864E-3,1.088E2,5.3248197E-2,7.4E1,-7.884116E-2,-5.637295E-3,-3.1153785E-2,4.953998E-2],"split_indices":[3,4,4,3,3,0,0,0,3,0,3,0,0,0,0,0,0],"split_type":[0,0,0,0,0,0,0,0,0,0,0,0,0,0,0,0,0],"sum_hessian":[1.2465483E2,8.638447E1,3.8270363E1,4.765466E1,3.872981E1,2.5893766E1,1.23765955E1,1.0151954E1,3.750271E1,1.1001237E1,2.772857E1,1.3945866E1,2.355684E1,1.703876E1,1.0689813E1,1.3270676E1,1.0286165E1],"tree_param":{"num_deleted":"0","num_feature":"15","num_nodes":"17","size_leaf_vector":"1"}},{"base_weights":[-1.7235965E-2,-1.2916932E-1,4.8553254E-2,-6.046026E-2,-3.4108716E-3,1.3090515E-1,-1.0926484E-1,3.657048E-2,-2.3644245E-1,-3.2174983E-3,7.585601E-2,-4.9337804E-2,1.0481834E-2,-6.6409335E-2,-0E0,2.4627939E-2,-2.0832533E-2],"categories":[],"categories_nodes":[],"categories_segments":[],"categories_sizes":[],"default_left":[0,0,0,0,0,0,0,0,0,0,0,0,0,0,0,0,0],"id":57,"left_children":[1,3,5,-1,7,9,11,-1,13,15,-1,-1,-1,-1,-1,-1,-1],"loss_changes":[9.971907E-1,1.8171442E0,1.0155034E0,0E0,2.5953703E0,3.6399896E0,1.4239444E0,0E0,1.8516113E0,1.2062305E0,0E0,0E0,0E0,0E0,0E0,0E0,0E0],"parents":[2147483647,0,0,1,1,2,2,4,4,5,5,6,6,8,8,9,9],"right_children":[2,4,6,-1,8,10,12,-1,14,16,-1,-1,-1,-1,-1,-1,-1],"split_conditions":[1E0,2.66E1,3.21E1,-6.046026E-2,2.87E1,2.94E1,1.6731E2,3.657048E-2,3.39E1,2.67E1,7.585601E-2,-4.9337804E-2,1.0481834E-2,-6.6409335E-2,-0E0,2.4627939E-2,-2.0832533E-2],"split_indices":[9,4,4,0,4,4,3,0,4,4,0,0,0,0,0,0,0],"split_type":[0,0,0,0,0,0,0,0,0,0,0,0,0,0,0,0,0],"sum_hessian":[1.266793E2,5.0751167E1,7.592813E1,1.1969558E1,3.8781612E1,5.292908E1,2.299905E1,1.6063513E1,2.2718098E1,3.9924446E1,1.3004632E1,1.0877654E1,1.2121397E1,1.1681982E1,1.1036116E1,1.5825638E1,2.409881E1],"tree_param":{"num_deleted":"0","num_feature":"15","num_nodes":"17","size_leaf_vector":"1"}},{"base_weights":[4.368242E-2,-9.097933E-2,1.1824504E-1,-3.8481563E-2,5.1569916E-2,4.0102506E-1,-2.6740275E-2,5.705371E-2,-2.9345285E-2,8.717237E-2,8.870587E-3,-1.4693484E-1,2.3635276E-2,-0E0,-5.72493E-2,-3.1653974E-2,3.246543E-2],"categories":[],"categories_nodes":[],"categories_segments":[],"categories_sizes":[],"default_left":[0,0,0,0,0,0,0,0,0,0,0,0,0,0,0,0,0],"id":58,"left_children":[1,3,5,-1,7,9,11,-1,-1,-1,-1,13,-1,15,-1,-1,-1],"loss_changes":[1.2699189E0,1.3740995E0,3.694642E0,0E0,2.596493E0,2.1159081E0,1.335823E0,0E0,0E0,0E0,0E0,1.6966996E0,0E0,1.4892008E0,0E0,0E0,0E0],"parents":[2147483647,0,0,1,1,2,2,4,4,5,5,6,6,11,11,13,13],"right_children":[2,4,6,-1,8,10,12,-1,-1,-1,-1,14,-1,16,-1,-1,-1],"split_conditions":[8.611E1,2.8E1,1.1225E2,-3.8481563E-2,7.32E1,6.7E1,3.44E1,5.705371E-2,-2.9345285E-2,8.717237E-2,8.870587E-3,3.01E1,2.3635276E-2,7.2E1,-5.72493E-2,-3.1653974E-2,3.246543E-2],"split_indices":[3,4,3,0,3,0,4,0,0,0,0,4,0,0,0,0,0],"split_type":[0,0,0,0,0,0,0,0,0,0,0,0,0,0,0,0,0],"sum_hessian":[1.235307E2,4.0562687E1,8.296802E1,1.854878E1,2.2013908E1,2.950568E1,5.3462334E1,1.0156777E1,1.1857131E1,1.4919484E1,1.4586197E1,3.614425E1,1.7318083E1,2.3695404E1,1.2448847E1,1.1413628E1,1.2281776E1],"tree_param":{"num_deleted":"0","num_feature":"15","num_nodes":"17","size_leaf_vector":"1"}},{"base_weights":[5.707284E-2,5.19181E-3,4.4826277E-2,9.081213E-2,-6.548689E-2,2.033592E-1,-0E0,6.6139534E-2,1.5761321E-2,-2.5932353E-2,1.3608402E-1,-3.0778995E-2,4.8811477E-2,3.7270505E-2,-5.8677965E-3],"categories":[],"categories_nodes":[],"categories_segments":[],"categories_sizes":[],"default_left":[0,0,0,0,0,0,0,0,0,0,0,0,0,0,0],"id":59,"left_children":[1,3,-1,5,-1,7,9,-1,11,-1,13,-1,-1,-1,-1],"loss_changes":[1.6214329E0,4.4708467E0,0E0,9.9607897E-1,0E0,2.0718539E0,1.440977E0,0E0,2.7146885E0,0E0,1.0203657E0,0E0,0E0,0E0,0E0],"parents":[2147483647,0,0,1,1,3,3,5,5,6,6,8,8,10,10],"right_children":[2,4,-1,6,-1,8,10,-1,12,-1,14,-1,-1,-1,-1],"split_conditions":[3.71E1,3.31E1,4.4826277E-2,1E0,-6.548689E-2,6.2E1,6.8E1,6.6139534E-2,7.7E1,-2.5932353E-2,7.9E1,-3.0778995E-2,4.8811477E-2,3.7270505E-2,-5.8677965E-3],"split_indices":[4,4,0,12,0,0,0,0,0,0,0,0,0,0,0],"split_type":[0,0,0,0,0,0,0,0,0,0,0,0,0,0,0],"sum_hessian":[1.2552906E2,1.0880727E2,1.6721794E1,9.463181E1,1.4175452E1,4.257017E1,5.206164E1,1.4494636E1,2.8075535E1,2.142589E1,3.0635752E1,1.5415005E1,1.2660531E1,1.8796684E1,1.1839067E1],"tree_param":{"num_deleted":"0","num_feature":"15","num_nodes":"15","size_leaf_vector":"1"}},{"base_weights":[-8.368969E-3,3.5586916E-2,-3.8492974E-2,1.7899475E-1,-1.5363895E-2,-1.583986E-2,2.6045483E-1,3.543967E-1,-0E0,1.736934E-2,7.3280096E-2],"categories":[],"categories_nodes":[],"categories_segments":[],"categories_sizes":[],"default_left":[0,0,0,0,0,0,0,0,0,0,0],"id":60,"left_children":[1,3,-1,5,-1,-1,7,9,-1,-1,-1],"loss_changes":[1.7690368E0,2.4043128E0,0E0,1.5300562E0,0E0,0E0,1.1454053E0,1.0604839E0,0E0,0E0,0E0],"parents":[2147483647,0,0,1,1,3,3,6,6,7,7],"right_children":[2,4,-1,6,-1,-1,8,10,-1,-1,-1],"split_conditions":[2.1451E2,2.86E1,-3.8492974E-2,2.31E1,-1.5363895E-2,-1.583986E-2,1E0,9.647E1,-0E0,1.736934E-2,7.3280096E-2],"split_indices":[3,4,0,4,0,0,10,3,0,0,0],"split_type":[0,0,0,0,0,0,0,0,0,0,0],"sum_hessian":[1.2483468E2,1.064306E2,1.8404076E1,5.7358948E1,4.907166E1,1.03118E1,4.7047146E1,3.4308205E1,1.2738941E1,1.863521E1,1.5672996E1],"tree_param":{"num_deleted":"0","num_feature":"15","num_nodes":"11","size_leaf_vector":"1"}},{"base_weights":[-1.51463095E-2,-1.2957904E-1,1.2574296E-1,-2.4052173E-2,-8.389269E-2,5.5604458E-2,1.0367925E-2,-4.7658E-2,5.746627E-2,-2.2478716E-2,3.829861E-2,1.6558185E-1,-1.8148173E-2,4.8716135E-2,-0E0],"categories":[],"categories_nodes":[],"categories_segments":[],"categories_sizes":[],"default_left":[0,0,0,0,0,0,0,0,0,0,0,0,0,0,0],"id":61,"left_children":[1,3,5,7,-1,-1,9,-1,11,-1,-1,13,-1,-1,-1],"loss_changes":[2.048852E0,3.4571319E0,1.5594254E0,1.955389E0,0E0,0E0,2.2453935E0,0E0,1.0668306E0,0E0,0E0,1.1968961E0,0E0,0E0,0E0],"parents":[2147483647,0,0,1,1,2,2,3,3,6,6,8,8,11,11],"right_children":[2,4,6,8,-1,-1,10,-1,12,-1,-1,14,-1,-1,-1],"split_conditions":[2.97E1,2.82E1,8.932E1,7.451E1,-8.389269E-2,5.5604458E-2,1E0,-4.7658E-2,1.5238E2,-2.2478716E-2,3.829861E-2,1E0,-1.8148173E-2,4.8716135E-2,-0E0],"split_indices":[4,4,3,3,0,0,5,0,3,0,0,13,0,0,0],"split_type":[0,0,0,0,0,0,0,0,0,0,0,0,0,0,0],"sum_hessian":[1.2593919E2,7.232077E1,5.3618427E1,6.1561554E1,1.0759213E1,1.2800474E1,4.0817955E1,1.3246411E1,4.8315144E1,2.338934E1,1.7428616E1,3.356669E1,1.4748456E1,1.4812727E1,1.875396E1],"tree_param":{"num_deleted":"0","num_feature":"15","num_nodes":"15","size_leaf_vector":"1"}},{"base_weights":[1.2539941E-2,8.3760805E-2,-1.395386E-1,-0E0,4.9220983E-2,-5.2024715E-2,-0E0,-3.752284E-2,5.8052205E-2,-3.1882E-2,2.3103945E-2,4.890662E-2,-1.1982549E-2,1.255963E-2,-3.1710885E-2],"categories":[],"categories_nodes":[],"categories_segments":[],"categories_sizes":[],"default_left":[0,0,0,0,0,0,0,0,0,0,0,0,0,0,0],"id":62,"left_children":[1,3,5,7,-1,-1,9,-1,11,-1,-1,-1,13,-1,-1],"loss_changes":[1.3111198E0,2.0726845E0,1.2757304E0,1.1146728E0,0E0,0E0,1.0904789E0,0E0,1.5716596E0,0E0,0E0,0E0,1.2904445E0,0E0,0E0],"parents":[2147483647,0,0,1,1,2,2,3,3,6,6,8,8,12,12],"right_children":[2,4,6,8,-1,-1,10,-1,12,-1,-1,-1,14,-1,-1],"split_conditions":[3.21E1,2.94E1,1.0588E2,5.4E1,4.9220983E-2,-5.2024715E-2,3.63E1,-3.752284E-2,2.45E1,-3.1882E-2,2.3103945E-2,4.890662E-2,7.7E1,1.255963E-2,-3.1710885E-2],"split_indices":[4,4,3,0,0,0,4,0,4,0,0,0,0,0,0],"split_type":[0,0,0,0,0,0,0,0,0,0,0,0,0,0,0],"sum_hessian":[1.23733536E2,8.762395E1,3.6109592E1,6.918215E1,1.8441792E1,1.2033644E1,2.4075949E1,1.0597443E1,5.858471E1,1.03179035E1,1.3758046E1,1.2083013E1,4.6501698E1,2.9746565E1,1.6755133E1],"tree_param":{"num_deleted":"0","num_feature":"15","num_nodes":"15","size_leaf_vector":"1"}},{"base_weights":[1.4207636E-2],"categories":[],"categories_nodes":[],"categories_segments":[],"categories_sizes":[],"default_left":[0],"id":63,"left_children":[-1],"loss_changes":[0E0],"parents":[2147483647],"right_children":[-1],"split_conditions":[1.8545939E-3],"split_indices":[0],"split_type":[0],"sum_hessian":[1.261301E2],"tree_param":{"num_deleted":"0","num_feature":"15","num_nodes":"1","size_leaf_vector":"1"}},{"base_weights":[-2.9178765E-2],"categories":[],"categories_nodes":[],"categories_segments":[],"categories_sizes":[],"default_left":[0],"id":64,"left_children":[-1],"loss_changes":[0E0],"parents":[2147483647],"right_children":[-1],"split_conditions":[-3.8088502E-3],"split_indices":[0],"split_type":[0],"sum_hessian":[1.2518815E2],"tree_param":{"num_deleted":"0","num_feature":"15","num_nodes":"1","size_leaf_vector":"1"}},{"base_weights":[2.5673302E-2,3.2920178E-2,-4.860995E-3,-1.5191837E-1,1.0231461E-2,9.801095E-3,-3.9677043E-2],"categories":[],"categories_nodes":[],"categories_segments":[],"categories_sizes":[],"default_left":[0,0,0,0,0,0,0],"id":65,"left_children":[1,-1,3,5,-1,-1,-1],"loss_changes":[1.0294986E0,0E0,1.3585653E0,1.6128798E0,0E0,0E0,0E0],"parents":[2147483647,0,0,2,2,3,3],"right_children":[2,-1,4,6,-1,-1,-1],"split_conditions":[7.134E1,3.2920178E-2,1E0,2.78E1,1.0231461E-2,9.801095E-3,-3.9677043E-2],"split_indices":[3,0,9,4,0,0,0],"split_type":[0,0,0,0,0,0,0],"sum_hessian":[1.22665985E2,1.6939949E1,1.05726036E2,4.118023E1,6.454581E1,1.4726781E1,2.6453447E1],"tree_param":{"num_deleted":"0","num_feature":"15","num_nodes":"7","size_leaf_vector":"1"}},{"base_weights":[1.309803E-2,2.088599E-1,-4.2947035E-2,4.1882021E-4,5.6282353E-2,1.2490709E-2,-6.326495E-2,-9.3141176E-2,1.4968841E-1,-5.128781E-2,-0E0,5.8117073E-2,-0E0,2.5575938E-2,-3.177438E-2,-3.399803E-2,3.0315235E-2],"categories":[],"categories_nodes":[],"categories_segments":[],"categories_sizes":[],"default_left":[0,0,0,0,0,0,0,0,0,0,0,0,0,0,0,0,0],"id":66,"left_children":[1,3,5,-1,-1,7,-1,9,11,-1,13,-1,15,-1,-1,-1,-1],"loss_changes":[1.4733853E0,1.0743183E0,2.6241093E0,0E0,0E0,1.233694E0,0E0,1.4396368E0,1.5746166E0,0E0,1.5372074E0,0E0,1.6479216E0,0E0,0E0,0E0,0E0],"parents":[2147483647,0,0,1,1,2,2,5,5,7,7,8,8,10,10,12,12],"right_children":[2,4,6,-1,-1,8,-1,10,12,-1,14,-1,16,-1,-1,-1,-1],"split_conditions":[7.914E1,7.4E1,8E1,4.1882021E-4,5.6282353E-2,2.96E1,-6.326495E-2,9.296E1,3.21E1,-5.128781E-2,1.8299E2,5.8117073E-2,1.8299E2,2.5575938E-2,-3.177438E-2,-3.399803E-2,3.0315235E-2],"split_indices":[3,0,0,0,0,4,0,3,4,0,3,0,3,0,0,0,0],"split_type":[0,0,0,0,0,0,0,0,0,0,0,0,0,0,0,0,0],"sum_hessian":[1.22584076E2,2.9834347E1,9.274973E1,1.742583E1,1.2408516E1,8.138397E1,1.136576E1,4.3120186E1,3.8263786E1,1.12926035E1,3.1827581E1,1.1840157E1,2.6423632E1,1.8973272E1,1.2854309E1,1.1791718E1,1.4631913E1],"tree_param":{"num_deleted":"0","num_feature":"15","num_nodes":"17","size_leaf_vector":"1"}},{"base_weights":[2.9279964E-2,1.5908282E-1,-1.553299E-1,-1.26556335E-2,2.1676487E-1,-3.0755034E-1,-0E0,-0E0,3.831041E-2,7.595587E-4,-6.9859214E-2],"categories":[],"categories_nodes":[],"categories_segments":[],"categories_sizes":[],"default_left":[0,0,0,0,0,0,0,0,0,0,0],"id":67,"left_children":[1,3,5,-1,7,9,-1,-1,-1,-1,-1],"loss_changes":[3.0048819E0,1.2152152E0,1.3766228E0,0E0,9.684448E-1,2.319116E0,0E0,0E0,0E0,0E0,0E0],"parents":[2147483647,0,0,1,1,2,2,4,4,5,5],"right_children":[2,4,6,-1,8,10,-1,-1,-1,-1,-1],"split_conditions":[1.1869E2,6.67E1,2.0796E2,-1.26556335E-2,5.7E1,2.84E1,-0E0,-0E0,3.831041E-2,7.595587E-4,-6.9859214E-2],"split_indices":[3,3,3,0,0,4,0,0,0,0,0],"split_type":[0,0,0,0,0,0,0,0,0,0,0],"sum_hessian":[1.243033E2,7.530258E1,4.9000717E1,1.1502377E1,6.38002E1,2.6693047E1,2.230767E1,1.7973274E1,4.582693E1,1.0105664E1,1.6587383E1],"tree_param":{"num_deleted":"0","num_feature":"15","num_nodes":"11","size_leaf_vector":"1"}},{"base_weights":[-2.7505273E-3,1.3796122E-1,-7.078063E-2,-2.1992091E-2,5.1416732E-2,-1.966904E-2,3.1400762E-2],"categories":[],"categories_nodes":[],"categories_segments":[],"categories_sizes":[],"default_left":[0,0,0,0,0,0,0],"id":68,"left_children":[1,3,5,-1,-1,-1,-1],"loss_changes":[1.1726794E0,3.1843123E0,2.176646E0,0E0,0E0,0E0,0E0],"parents":[2147483647,0,0,1,1,2,2],"right_children":[2,4,6,-1,-1,-1,-1],"split_conditions":[8.343E1,1E0,1E0,-2.1992091E-2,5.1416732E-2,-1.966904E-2,3.1400762E-2],"split_indices":[3,13,14,0,0,0,0],"split_type":[0,0,0,0,0,0,0],"sum_hessian":[1.2655259E2,3.7651512E1,8.890108E1,1.593675E1,2.171476E1,7.277428E1,1.61268E1],"tree_param":{"num_deleted":"0","num_feature":"15","num_nodes":"7","size_leaf_vector":"1"}},{"base_weights":[-4.1045044E-2,-1.8193875E-2,6.7240424E-2,4.915978E-2,-5.887213E-3],"categories":[],"categories_nodes":[],"categories_segments":[],"categories_sizes":[],"default_left":[0,0,0,0,0],"id":69,"left_children":[1,-1,3,-1,-1],"loss_changes":[1.4026748E0,0E0,2.2280183E0,0E0,0E0],"parents":[2147483647,0,0,2,2],"right_children":[2,-1,4,-1,-1],"split_conditions":[2.94E1,-1.8193875E-2,3.15E1,4.915978E-2,-5.887213E-3],"split_indices":[4,0,4,0,0],"split_type":[0,0,0,0,0],"sum_hessian":[1.2596869E2,6.941101E1,5.6557682E1,1.6462158E1,4.0095524E1],"tree_param":{"num_deleted":"0","num_feature":"15","num_nodes":"5","size_leaf_vector":"1"}},{"base_weights":[5.4065406E-2,-8.927043E-2,1.5021975E-1,2.92075E-3,-4.0095568E-2,2.001738E-1,-8.475364E-3,-2.3836292E-2,5.6698423E-2,6.358758E-2,8.839643E-2,1.8656716E-1,-2.5381899E-2,5.6426737E-2,-1.669919E-2],"categories":[],"categories_nodes":[],"categories_segments":[],"categories_sizes":[],"default_left":[0,0,0,0,0,0,0,0,0,0,0,0,0,0,0],"id":70,"left_children":[1,3,5,7,-1,9,-1,-1,-1,-1,11,13,-1,-1,-1],"loss_changes":[1.7848132E0,1.1794385E0,9.4681144E-1,2.7631931E0,0E0,1.7009151E0,0E0,0E0,0E0,0E0,1.4075729E0,3.2923179E0,0E0,0E0,0E0],"parents":[2147483647,0,0,1,1,2,2,3,3,5,5,10,10,11,11],"right_children":[2,4,6,8,-1,10,-1,-1,-1,-1,12,14,-1,-1,-1],"split_conditions":[6.3E1,5.8E1,1E0,5.4E1,-4.0095568E-2,7.1E1,-8.475364E-3,-2.3836292E-2,5.6698423E-2,6.358758E-2,1E0,7.9E1,-2.5381899E-2,5.6426737E-2,-1.669919E-2],"split_indices":[0,0,14,0,0,0,0,0,0,0,2,0,0,0,0],"split_type":[0,0,0,0,0,0,0,0,0,0,0,0,0,0,0],"sum_hessian":[1.253791E2,4.7362854E1,7.801624E1,3.1307037E1,1.6055817E1,6.604403E1,1.1972211E1,2.092693E1,1.0380108E1,1.6263086E1,4.9780945E1,3.8956207E1,1.0824737E1,2.304665E1,1.5909558E1],"tree_param":{"num_deleted":"0","num_feature":"15","num_nodes":"15","size_leaf_vector":"1"}},{"base_weights":[-1.0389745E-2,-1.3928872E-1,9.0422384E-2,-6.2495773E-3,-2.9078344E-1,-2.124004E-2,2.1050187E-2,1.03763804E-1,-3.2473776E-2,-7.693307E-2,1.1176589E-2,6.1259683E-2,-2.9340286E-2],"categories":[],"categories_nodes":[],"categories_segments":[],"categories_sizes":[],"default_left":[0,0,0,0,0,0,0,0,0,0,0,0,0],"id":71,"left_children":[1,3,5,7,9,-1,-1,11,-1,-1,-1,-1,-1],"loss_changes":[1.705597E0,9.8608196E-1,1.2498937E0,1.0422347E0,3.2289922E0,0E0,0E0,2.8900914E0,0E0,0E0,0E0,0E0,0E0],"parents":[2147483647,0,0,1,1,2,2,3,3,4,4,7,7],"right_children":[2,4,6,8,10,-1,-1,12,-1,-1,-1,-1,-1],"split_conditions":[1E0,7.1E1,2.62E1,3.2E1,7.9E1,-2.124004E-2,2.1050187E-2,1E0,-3.2473776E-2,-7.693307E-2,1.1176589E-2,6.1259683E-2,-2.9340286E-2],"split_indices":[12,0,4,4,0,0,0,13,0,0,0,0,0],"split_type":[0,0,0,0,0,0,0,0,0,0,0,0,0],"sum_hessian":[1.2760952E2,5.9039906E1,6.856961E1,3.4219555E1,2.482035E1,1.2645434E1,5.592418E1,2.1699877E1,1.2519678E1,1.47494135E1,1.0070937E1,1.1205297E1,1.049458E1],"tree_param":{"num_deleted":"0","num_feature":"15","num_nodes":"13","size_leaf_vector":"1"}},{"base_weights":[-4.1836537E-3,-6.365603E-2,2.7695742E-2,3.9024036E-3,-5.2211456E-2,5.8038425E-2,-3.712731E-2,-3.2063235E-2,1.7497517E-1,6.1803743E-2,1.048638E-2],"categories":[],"categories_nodes":[],"categories_segments":[],"categories_sizes":[],"default_left":[0,0,0,0,0,0,0,0,0,0,0],"id":72,"left_children":[1,3,-1,5,-1,7,-1,-1,9,-1,-1],"loss_changes":[1.4484707E0,2.4964125E0,0E0,1.0910408E0,0E0,2.4436653E0,0E0,0E0,1.061768E0,0E0,0E0],"parents":[2147483647,0,0,1,1,3,3,5,5,8,8],"right_children":[2,4,-1,6,-1,8,-1,-1,10,-1,-1],"split_conditions":[2.0523E2,1.4028E2,2.7695742E-2,3.45E1,-5.2211456E-2,7.265E1,-3.712731E-2,-3.2063235E-2,7.892E1,6.1803743E-2,1.048638E-2],"split_indices":[3,3,0,4,0,3,0,0,3,0,0],"split_type":[0,0,0,0,0,0,0,0,0,0,0],"sum_hessian":[1.1984638E2,9.686966E1,2.297672E1,7.9290794E1,1.7578865E1,6.9172806E1,1.0117986E1,1.738093E1,5.1791878E1,1.0180811E1,4.161107E1],"tree_param":{"num_deleted":"0","num_feature":"15","num_nodes":"11","size_leaf_vector":"1"}},{"base_weights":[-3.0127235E-3,-1.17181234E-1,9.106397E-2,-0E0,-4.439982E-2,-1.17420135E-2,2.0473471E-1,-4.652409E-2,1.617563E-1,6.3031904E-2,7.039531E-2,5.2302092E-2,-2.0321874E-2,-1.3709606E-2,4.204074E-2],"categories":[],"categories_nodes":[],"categories_segments":[],"categories_sizes":[],"default_left":[0,0,0,0,0,0,0,0,0,0,0,0,0,0,0],"id":73,"left_children":[1,3,5,7,-1,-1,9,-1,11,-1,13,-1,-1,-1,-1],"loss_changes":[1.3531475E0,1.6252277E0,1.4220794E0,2.232565E0,0E0,0E0,1.1683232E0,0E0,2.2912722E0,0E0,1.5330132E0,0E0,0E0,0E0,0E0],"parents":[2147483647,0,0,1,1,2,2,3,3,6,6,8,8,10,10],"right_children":[2,4,6,8,-1,-1,10,-1,12,-1,14,-1,-1,-1,-1],"split_conditions":[6.8E1,3.21E1,8.741E1,2.73E1,-4.439982E-2,-1.17420135E-2,2.7E1,-4.652409E-2,6E1,6.3031904E-2,3.08E1,5.2302092E-2,-2.0321874E-2,-1.3709606E-2,4.204074E-2],"split_indices":[0,4,3,4,0,0,4,0,0,0,4,0,0,0,0],"split_type":[0,0,0,0,0,0,0,0,0,0,0,0,0,0,0],"sum_hessian":[1.23279335E2,5.9077843E1,6.420149E1,3.844431E1,2.0633532E1,2.2373386E1,4.1828102E1,1.1427425E1,2.7016886E1,1.1478291E1,3.0349813E1,1.6629768E1,1.0387118E1,1.6373268E1,1.3976545E1],"tree_param":{"num_deleted":"0","num_feature":"15","num_nodes":"15","size_leaf_vector":"1"}},{"base_weights":[-3.2554492E-2,-1.6745934E-1,7.4884765E-2,-5.4339733E-2,-6.9971025E-2,5.577972E-2,-0E0,3.5072868E-3,-3.382182E-2,8.84479E-2,-3.5119675E-2,-2.4488032E-2,3.842587E-2],"categories":[],"categories_nodes":[],"categories_segments":[],"categories_sizes":[],"default_left":[0,0,0,0,0,0,0,0,0,0,0,0,0],"id":74,"left_children":[1,3,5,-1,7,-1,9,-1,-1,11,-1,-1,-1],"loss_changes":[1.8976595E0,1.0673224E0,1.6373643E0,0E0,9.93751E-1,0E0,1.3054504E0,0E0,0E0,2.6126168E0,0E0,0E0,0E0],"parents":[2147483647,0,0,1,1,2,2,4,4,6,6,9,9],"right_children":[2,4,6,-1,8,-1,10,-1,-1,12,-1,-1,-1],"split_conditions":[6.7E1,2.8E1,7.1E1,-5.4339733E-2,5.9E1,5.577972E-2,1E0,3.5072868E-3,-3.382182E-2,1E0,-3.5119675E-2,-2.4488032E-2,3.842587E-2],"split_indices":[0,4,0,0,0,0,2,0,0,13,0,0,0],"split_type":[0,0,0,0,0,0,0,0,0,0,0,0,0],"sum_hessian":[1.2545092E2,5.84519E1,6.699902E1,1.394151E1,4.451039E1,1.055601E1,5.644301E1,2.720766E1,1.7302732E1,4.366264E1,1.2780369E1,1.7187645E1,2.6474995E1],"tree_param":{"num_deleted":"0","num_feature":"15","num_nodes":"13","size_leaf_vector":"1"}},{"base_weights":[-4.8656195E-2,-2.1726857E-1,8.931722E-2,-6.296426E-2,-6.9879845E-2,6.050257E-2,-0E0,1.8171249E-2,-2.3713377E-1,-1.0480757E-1,1.8270303E-1,-6.0325317E-2,-0E0,1.3463868E-2,-5.511203E-2,-8.4740985E-3,5.876417E-2],"categories":[],"categories_nodes":[],"categories_segments":[],"categories_sizes":[],"default_left":[0,0,0,0,0,0,0,0,0,0,0,0,0,0,0,0,0],"id":75,"left_children":[1,3,5,-1,7,-1,9,-1,11,13,15,-1,-1,-1,-1,-1,-1],"loss_changes":[2.9976342E0,1.874284E0,1.9869754E0,0E0,1.4815673E0,0E0,1.1066914E0,0E0,1.5024195E0,2.470718E0,1.7524197E0,0E0,0E0,0E0,0E0,0E0,0E0],"parents":[2147483647,0,0,1,1,2,2,4,4,6,6,8,8,9,9,10,10],"right_children":[2,4,6,-1,8,-1,10,-1,12,14,16,-1,-1,-1,-1,-1,-1],"split_conditions":[6.8E1,8.772E1,2.47E1,-6.296426E-2,1.1225E2,6.050257E-2,1.5893E2,1.8171249E-2,3.44E1,9.125E1,1E0,-6.0325317E-2,-0E0,1.3463868E-2,-5.511203E-2,-8.4740985E-3,5.876417E-2],"split_indices":[0,3,4,0,3,0,3,0,4,3,5,0,0,0,0,0,0],"split_type":[0,0,0,0,0,0,0,0,0,0,0,0,0,0,0,0,0],"sum_hessian":[1.2402742E2,5.8027115E1,6.6000305E1,1.8605915E1,3.94212E1,1.1234517E1,5.4765785E1,1.565281E1,2.3768387E1,3.3169594E1,2.1596191E1,1.2936661E1,1.0831727E1,1.8873795E1,1.4295801E1,1.0014129E1,1.1582063E1],"tree_param":{"num_deleted":"0","num_feature":"15","num_nodes":"17","size_leaf_vector":"1"}},{"base_weights":[4.049975E-2,9.227618E-2,-2.672659E-2,-2.7637865E-2,1.3911605E-1,5.4437824E-2,7.077721E-2,-9.093429E-5,3.931909E-2],"categories":[],"categories_nodes":[],"categories_segments":[],"categories_sizes":[],"default_left":[0,0,0,0,0,0,0,0,0],"id":76,"left_children":[1,3,-1,-1,5,-1,7,-1,-1],"loss_changes":[1.5215381E0,1.4762573E0,0E0,0E0,1.4305044E0,0E0,1.5077336E0,0E0,0E0],"parents":[2147483647,0,0,1,1,4,4,6,6],"right_children":[2,4,-1,-1,6,-1,8,-1,-1],"split_conditions":[2.1303E2,6.67E1,-2.672659E-2,-2.7637865E-2,7.682E1,5.4437824E-2,1.5893E2,-9.093429E-5,3.931909E-2],"split_indices":[3,3,0,0,3,0,3,0,0],"split_type":[0,0,0,0,0,0,0,0,0],"sum_hessian":[1.2496563E2,1.0584186E2,1.912377E1,1.1862199E1,9.397966E1,1.5993131E1,7.798653E1,5.7520027E1,2.0466501E1],"tree_param":{"num_deleted":"0","num_feature":"15","num_nodes":"9","size_leaf_vector":"1"}},{"base_weights":[-6.151233E-2],"categories":[],"categories_nodes":[],"categories_segments":[],"categories_sizes":[],"default_left":[0],"id":77,"left_children":[-1],"loss_changes":[0E0],"parents":[2147483647],"right_children":[-1],"split_conditions":[-8.029512E-3],"split_indices":[0],"split_type":[0],"sum_hessian":[1.1817516E2],"tree_param":{"num_deleted":"0","num_feature":"15","num_nodes":"1","size_leaf_vector":"1"}},{"base_weights":[4.8455395E-2,-2.7621333E-2,4.664417E-2,-1.6001569E-1,6.455031E-2,-0E0,-3.8153876E-2,1.9376947E-1,-4.258747E-2,4.789891E-2,-0E0],"categories":[],"categories_nodes":[],"categories_segments":[],"categories_sizes":[],"default_left":[0,0,0,0,0,0,0,0,0,0,0],"id":78,"left_children":[1,3,-1,5,7,-1,-1,9,-1,-1,-1],"loss_changes":[3.0675702E0,1.2339709E0,0E0,1.0368463E0,2.623632E0,0E0,0E0,1.4755939E0,0E0,0E0,0E0],"parents":[2147483647,0,0,1,1,3,3,4,4,7,7],"right_children":[2,4,-1,6,8,-1,-1,10,-1,-1,-1],"split_conditions":[3.4E1,2.8E1,4.664417E-2,1E0,3.15E1,-0E0,-3.8153876E-2,1E0,-4.258747E-2,4.789891E-2,-0E0],"split_indices":[4,4,0,13,4,0,0,5,0,0,0],"split_type":[0,0,0,0,0,0,0,0,0,0,0],"sum_hessian":[1.1981006E2,9.462528E1,2.5184778E1,4.1881256E1,5.2744026E1,1.7531097E1,2.435016E1,4.1198074E1,1.1545952E1,2.2098516E1,1.9099558E1],"tree_param":{"num_deleted":"0","num_feature":"15","num_nodes":"11","size_leaf_vector":"1"}},{"base_weights":[-8.9551555E-3,3.0662593E-2,-4.552711E-2,-5.4162428E-2,-0E0,1.1715526E-1,-1.1708955E-1,-3.0008748E-2,2.8108424E-1,-1.2346381E-2,-4.8517555E-2,5.5641744E-2,1.4159757E-3,1.1183615E-2,-3.2774992E-2],"categories":[],"categories_nodes":[],"categories_segments":[],"categories_sizes":[],"default_left":[0,0,0,0,0,0,0,0,0,0,0,0,0,0,0],"id":79,"left_children":[1,-1,3,-1,5,7,9,-1,11,13,-1,-1,-1,-1,-1],"loss_changes":[9.8698896E-1,0E0,1.9647741E0,0E0,1.3734639E0,2.9634914E0,1.035455E0,0E0,1.1044376E0,1.003349E0,0E0,0E0,0E0,0E0,0E0],"parents":[2147483647,0,0,2,2,4,4,5,5,6,6,8,8,9,9],"right_children":[2,-1,4,-1,6,8,10,-1,12,14,-1,-1,-1,-1,-1],"split_conditions":[6.862E1,3.0662593E-2,7.605E1,-5.4162428E-2,6.9E1,5.4E1,1E0,-3.0008748E-2,1E0,7.9E1,-4.8517555E-2,5.5641744E-2,1.4159757E-3,1.1183615E-2,-3.2774992E-2],"split_indices":[3,0,3,0,0,0,2,0,13,0,0,0,0,0,0],"split_type":[0,0,0,0,0,0,0,0,0,0,0,0,0,0,0],"sum_hessian":[1.24814354E2,1.3382113E1,1.1143224E2,1.2276198E1,9.9156044E1,5.0413944E1,4.87421E1,1.4709704E1,3.5704243E1,3.688626E1,1.1855837E1,2.1321117E1,1.4383123E1,2.4242748E1,1.2643514E1],"tree_param":{"num_deleted":"0","num_feature":"15","num_nodes":"15","size_leaf_vector":"1"}},{"base_weights":[-7.0858872E-3,-4.3260865E-2,1.8216321E-2,8.419377E-2,-2.7836502E-2,1.5231425E-1,-1.9417264E-2,6.613166E-2,5.7644386E-2,1.988851E-2,-3.1883415E-2],"categories":[],"categories_nodes":[],"categories_segments":[],"categories_sizes":[],"default_left":[0,0,0,0,0,0,0,0,0,0,0],"id":80,"left_children":[1,-1,3,5,-1,7,-1,9,-1,-1,-1],"loss_changes":[1.2141622E0,0E0,1.595757E0,1.4152457E0,0E0,1.3915663E0,0E0,1.4818411E0,0E0,0E0,0E0],"parents":[2147483647,0,0,2,2,3,3,5,5,7,7],"right_children":[2,-1,4,6,-1,8,-1,10,-1,-1,-1],"split_conditions":[6.67E1,-4.3260865E-2,3.47E1,1.9779E2,-2.7836502E-2,3.08E1,-1.9417264E-2,2.86E1,5.7644386E-2,1.988851E-2,-3.1883415E-2],"split_indices":[3,0,4,3,0,4,0,4,0,0,0],"split_type":[0,0,0,0,0,0,0,0,0,0,0],"sum_hessian":[1.1978637E2,1.0293844E1,1.0949252E2,8.785238E1,2.1640144E1,7.048263E1,1.7369747E1,5.6669437E1,1.3813194E1,4.6346855E1,1.0322583E1],"tree_param":{"num_deleted":"0","num_feature":"15","num_nodes":"11","size_leaf_vector":"1"}},{"base_weights":[-0E0,1.2050949E-1,-9.326794E-2,-2.3815902E-2,2.8584484E-2,-2.7633104E-1,1.6466836E-2,-2.994102E-2,-6.37253E-2,2.2958186E-2,-3.8856376E-2],"categories":[],"categories_nodes":[],"categories_segments":[],"categories_sizes":[],"default_left":[0,0,0,0,0,0,0,0,0,0,0],"id":81,"left_children":[1,3,5,-1,-1,7,-1,9,-1,-1,-1],"loss_changes":[1.3769362E0,1.5839276E0,3.0242152E0,0E0,0E0,1.7770772E0,0E0,1.2788507E0,0E0,0E0,0E0],"parents":[2147483647,0,0,1,1,2,2,5,5,7,7],"right_children":[2,4,6,-1,-1,8,-1,10,-1,-1,-1],"split_conditions":[9.461E1,6.67E1,1.9498E2,-2.3815902E-2,2.8584484E-2,6.7E1,1.6466836E-2,1.1225E2,-6.37253E-2,2.2958186E-2,-3.8856376E-2],"split_indices":[3,3,3,0,0,0,0,3,0,0,0],"split_type":[0,0,0,0,0,0,0,0,0,0,0],"sum_hessian":[1.2279708E2,5.1086746E1,7.1710335E1,1.0646446E1,4.04403E1,4.0804703E1,3.0905632E1,2.068258E1,2.0122122E1,1.0274775E1,1.0407805E1],"tree_param":{"num_deleted":"0","num_feature":"15","num_nodes":"11","size_leaf_vector":"1"}},{"base_weights":[-3.279794E-2,-5.530898E-2,3.8376814E-3,2.8036239E-2,-3.314874E-2,-1.6352902E-1,5.2772578E-2,-0E0,-5.9193134E-2,1.98419E-1,-3.2191202E-2,7.669868E-2,5.878373E-4],"categories":[],"categories_nodes":[],"categories_segments":[],"categories_sizes":[],"default_left":[0,0,0,0,0,0,0,0,0,0,0,0,0],"id":82,"left_children":[1,-1,3,-1,5,7,9,-1,-1,11,-1,-1,-1],"loss_changes":[2.0583143E0,0E0,9.992674E-1,0E0,1.1134644E0,2.1810143E0,2.2772458E0,0E0,0E0,2.3802817E0,0E0,0E0,0E0],"parents":[2147483647,0,0,2,2,4,4,5,5,6,6,9,9],"right_children":[2,-1,4,-1,6,8,10,-1,-1,12,-1,-1,-1],"split_conditions":[2.38E1,-5.530898E-2,2.7E1,2.8036239E-2,1.0074E2,8.239E1,1E0,-0E0,-5.9193134E-2,2.87E1,-3.2191202E-2,7.669868E-2,5.878373E-4],"split_indices":[4,0,4,0,3,3,1,0,0,4,0,0,0],"split_type":[0,0,0,0,0,0,0,0,0,0,0,0,0],"sum_hessian":[1.22190025E2,1.1707535E1,1.1048249E2,1.9023815E1,9.145868E1,3.946743E1,5.1991245E1,2.4148891E1,1.5318538E1,3.6694706E1,1.5296539E1,1.0649267E1,2.604544E1],"tree_param":{"num_deleted":"0","num_feature":"15","num_nodes":"13","size_leaf_vector":"1"}},{"base_weights":[-9.6061446E-2,-1.4567178E-1,1.5209213E-2,-1.0391267E-2,-5.4132856E-2],"categories":[],"categories_nodes":[],"categories_segments":[],"categories_sizes":[],"default_left":[0,0,0,0,0],"id":83,"left_children":[1,3,-1,-1,-1],"loss_changes":[1.2993574E0,1.4181964E0,0E0,0E0,0E0],"parents":[2147483647,0,0,1,1],"right_children":[2,4,-1,-1,-1],"split_conditions":[1E0,1E0,1.5209213E-2,-1.0391267E-2,-5.4132856E-2],"split_indices":[2,14,0,0,0],"split_type":[0,0,0,0,0],"sum_hessian":[1.1996766E2,1.00122375E2,1.9845282E1,8.30225E1,1.7099873E1],"tree_param":{"num_deleted":"0","num_feature":"15","num_nodes":"5","size_leaf_vector":"1"}},{"base_weights":[-4.2637805E-3,-5.2626383E-2,1.8361743E-1,-2.1432939E-1,1.741879E-2,5.9960607E-2,-8.234649E-3,-0E0,-4.7781598E-2,3.9741363E-2,-2.5893895E-2,-3.0763425E-2,6.5996847E-3],"categories":[],"categories_nodes":[],"categories_segments":[],"categories_sizes":[],"default_left":[0,0,0,0,0,0,0,0,0,0,0,0,0],"id":84,"left_children":[1,3,5,7,9,-1,-1,-1,-1,-1,11,-1,-1],"loss_changes":[1.0176643E0,1.2786336E0,1.7951102E0,1.3357164E0,1.0403106E0,0E0,0E0,0E0,0E0,0E0,1.0489234E0,0E0,0E0],"parents":[2147483647,0,0,1,1,2,2,3,3,4,4,10,10],"right_children":[2,4,6,8,10,-1,-1,-1,-1,-1,12,-1,-1],"split_conditions":[1E0,6.3E1,6.2E1,5.2E1,2.43E1,5.9960607E-2,-8.234649E-3,-0E0,-4.7781598E-2,3.9741363E-2,2.81E1,-3.0763425E-2,6.5996847E-3],"split_indices":[14,0,0,0,4,0,0,0,0,0,4,0,0],"split_type":[0,0,0,0,0,0,0,0,0,0,0,0,0],"sum_hessian":[1.2132472E2,9.979585E1,2.152887E1,3.2952168E1,6.684369E1,1.1340378E1,1.0188492E1,1.2003505E1,2.0948662E1,1.0549856E1,5.629383E1,1.7269218E1,3.9024612E1],"tree_param":{"num_deleted":"0","num_feature":"15","num_nodes":"13","size_leaf_vector":"1"}},{"base_weights":[-9.4743585E-3,-1.7873871E-1,1.1129012E-2,-2.7038127E-3,-5.2579667E-2],"categories":[],"categories_nodes":[],"categories_segments":[],"categories_sizes":[],"default_left":[0,0,0,0,0],"id":85,"left_children":[1,3,-1,-1,-1],"loss_changes":[2.0062656E0,1.325093E0,0E0,0E0,0E0],"parents":[2147483647,0,0,1,1],"right_children":[2,4,-1,-1,-1],"split_conditions":[9.248E1,7.6E1,1.1129012E-2,-2.7038127E-3,-5.2579667E-2],"split_indices":[3,0,0,0,0],"split_type":[0,0,0,0,0],"sum_hessian":[1.2000294E2,4.5620285E1,7.438265E1,2.8936419E1,1.6683867E1],"tree_param":{"num_deleted":"0","num_feature":"15","num_nodes":"5","size_leaf_vector":"1"}},{"base_weights":[9.990719E-3,7.8476235E-2,-1.6819231E-1,1.5391612E-2,4.561119E-2,-3.3838218E-1,1.34697E-2,1.2263818E-2,-4.7935337E-2,-0E0,-8.97424E-2],"categories":[],"categories_nodes":[],"categories_segments":[],"categories_sizes":[],"default_left":[0,0,0,0,0,0,0,0,0,0,0],"id":86,"left_children":[1,3,5,7,-1,9,-1,-1,-1,-1,-1],"loss_changes":[1.452589E0,1.3196541E0,1.6455579E0,2.159389E0,0E0,2.7964292E0,0E0,0E0,0E0,0E0,0E0],"parents":[2147483647,0,0,1,1,2,2,3,3,5,5],"right_children":[2,4,6,8,-1,10,-1,-1,-1,-1,-1],"split_conditions":[1E0,3.63E1,1.161E2,3.21E1,4.561119E-2,8.009E1,1.34697E-2,1.2263818E-2,-4.7935337E-2,-0E0,-8.97424E-2],"split_indices":[10,4,3,4,0,3,0,0,0,0,0],"split_type":[0,0,0,0,0,0,0,0,0,0,0],"sum_hessian":[1.23294586E2,9.216147E1,3.1133116E1,7.731404E1,1.4847428E1,2.068225E1,1.0450868E1,6.599935E1,1.131469E1,1.0121689E1,1.0560559E1],"tree_param":{"num_deleted":"0","num_feature":"15","num_nodes":"11","size_leaf_vector":"1"}},{"base_weights":[-0E0,2.8165113E-2,-5.6936678E-2,4.6962515E-2,-1.7579812E-1,2.0284088E-1,-3.83337E-2,-4.358747E-1,1.5061186E-2,4.6714004E-2,-0E0,-1.4594364E-2,-8.393871E-2],"categories":[],"categories_nodes":[],"categories_segments":[],"categories_sizes":[],"default_left":[0,0,0,0,0,0,0,0,0,0,0,0,0],"id":87,"left_children":[1,-1,3,5,7,9,-1,11,-1,-1,-1,-1,-1],"loss_changes":[1.6042936E0,0E0,1.2766539E0,2.5212913E0,3.8810596E0,1.2495759E0,0E0,1.2172027E0,0E0,0E0,0E0,0E0,0E0],"parents":[2147483647,0,0,2,2,3,3,4,4,5,5,7,7],"right_children":[2,-1,4,6,8,10,-1,12,-1,-1,-1,-1,-1],"split_conditions":[7.682E1,2.8165113E-2,1E0,1.9779E2,1.623E2,1E0,-3.83337E-2,9.32E1,1.5061186E-2,4.6714004E-2,-0E0,-1.4594364E-2,-8.393871E-2],"split_indices":[3,0,13,3,3,14,0,3,0,0,0,0,0],"split_type":[0,0,0,0,0,0,0,0,0,0,0,0,0],"sum_hessian":[1.2241944E2,2.7320902E1,9.509854E1,4.7684242E1,4.7414303E1,3.4290268E1,1.3393973E1,2.6216927E1,2.1197374E1,2.044549E1,1.3844778E1,1.1861972E1,1.4354955E1],"tree_param":{"num_deleted":"0","num_feature":"15","num_nodes":"13","size_leaf_vector":"1"}},{"base_weights":[6.6957506E-4,7.7889315E-3,-3.9580498E-2],"categories":[],"categories_nodes":[],"categories_segments":[],"categories_sizes":[],"default_left":[0,0,0],"id":88,"left_children":[1,-1,-1],"loss_changes":[2.018587E0,0E0,0E0],"parents":[2147483647,0,0],"right_children":[2,-1,-1],"split_conditions":[2.1451E2,7.7889315E-3,-3.9580498E-2],"split_indices":[3,0,0],"split_type":[0,0,0],"sum_hessian":[1.2134288E2,1.03913185E2,1.7429695E1],"tree_param":{"num_deleted":"0","num_feature":"15","num_nodes":"3","size_leaf_vector":"1"}},{"base_weights":[9.107507E-3,-9.0691075E-2,1.6217853E-1,-3.3034567E-2,-0E0,2.9710966E-1,-2.0162562E-2,4.0745112E-1,-0E0,1.948997E-2,8.570976E-2],"categories":[],"categories_nodes":[],"categories_segments":[],"categories_sizes":[],"default_left":[0,0,0,0,0,0,0,0,0,0,0],"id":89,"left_children":[1,3,5,-1,-1,7,-1,9,-1,-1,-1],"loss_changes":[1.9112916E0,1.1377628E0,2.298058E0,0E0,0E0,1.1801379E0,0E0,1.1125956E0,0E0,0E0,0E0],"parents":[2147483647,0,0,1,1,2,2,5,5,7,7],"right_children":[2,4,6,-1,-1,8,-1,10,-1,-1,-1],"split_conditions":[2.99E1,6.7E1,3.79E1,-3.3034567E-2,-0E0,1.9779E2,-2.0162562E-2,1.0486E2,-0E0,1.948997E-2,8.570976E-2],"split_indices":[4,0,4,0,0,3,0,3,0,0,0],"split_type":[0,0,0,0,0,0,0,0,0,0,0],"sum_hessian":[1.2081497E2,7.042085E1,5.0394123E1,2.638753E1,